#include "weights.h"
const size_t SIZE[4] = {26,64,64,1,};
const double WEIGHTS[14017] = {
-1.692770570516586304e-01,
-4.662154987454414368e-02,
5.790382251143455505e-02,
-4.108956456184387207e-02,
-6.672110408544540405e-02,
2.121923863887786865e-02,
1.079156473278999329e-01,
-4.912748932838439941e-02,
-1.876780204474925995e-02,
4.603044688701629639e-02,
8.646412193775177002e-02,
9.001034498214721680e-02,
-3.371702507138252258e-02,
1.254965662956237793e-01,
-1.726123690605163574e-01,
1.566901057958602905e-01,
3.528567776083946228e-02,
-1.213769540190696716e-01,
-1.745813339948654175e-01,
1.370924860239028931e-01,
-7.459589093923568726e-02,
-5.592087283730506897e-02,
-1.269860938191413879e-02,
-8.993384242057800293e-02,
1.037273108959197998e-01,
7.810638844966888428e-02,
1.182103678584098816e-01,
-9.617816656827926636e-02,
1.281850636005401611e-01,
-1.235793605446815491e-01,
5.842303857207298279e-03,
-1.802395731210708618e-01,
-5.191379413008689880e-02,
-8.209139108657836914e-02,
5.256474390625953674e-02,
4.789116606116294861e-02,
3.996959328651428223e-02,
9.222931414842605591e-02,
1.814559847116470337e-01,
8.355970680713653564e-02,
-2.180037647485733032e-02,
-6.880500912666320801e-02,
-1.094048917293548584e-01,
7.406820356845855713e-02,
-1.004874482750892639e-01,
1.152995005249977112e-01,
1.136596724390983582e-01,
-1.387653946876525879e-01,
-1.720744669437408447e-01,
-1.952132731676101685e-01,
-1.117196232080459595e-01,
-1.079784706234931946e-01,
-2.941824495792388916e-02,
-2.235581912100315094e-02,
-6.134614348411560059e-02,
-1.685410439968109131e-01,
6.222876906394958496e-02,
1.061842516064643860e-01,
-1.637844592332839966e-01,
-5.361197143793106079e-02,
-4.625462740659713745e-02,
-7.077737897634506226e-02,
5.937005952000617981e-02,
-8.841928839683532715e-02,
-9.350632317364215851e-03,
-7.186204195022583008e-02,
1.219558790326118469e-01,
-4.884843528270721436e-02,
5.216393247246742249e-02,
-1.707377880811691284e-01,
-2.223260551691055298e-01,
-1.654033213853836060e-01,
-9.174042195081710815e-02,
-1.142824143171310425e-01,
6.623626500368118286e-02,
1.483275294303894043e-01,
-2.662261016666889191e-02,
1.433026343584060669e-01,
7.695237547159194946e-02,
1.611806601285934448e-01,
-3.058705944567918777e-03,
-1.196707263588905334e-01,
7.803317904472351074e-02,
-1.307293474674224854e-01,
8.254040032625198364e-03,
1.557557284832000732e-01,
1.514676660299301147e-01,
-5.942781269550323486e-02,
1.327978670597076416e-01,
1.710803210735321045e-01,
-1.323864609003067017e-01,
-1.453688144683837891e-01,
-1.018914133310317993e-01,
-1.629810333251953125e-01,
-8.678433299064636230e-02,
6.038192659616470337e-03,
5.130464583635330200e-02,
7.578711211681365967e-02,
-1.441522222012281418e-02,
-1.670793294906616211e-01,
1.254825890064239502e-01,
1.170711219310760498e-01,
-1.623534969985485077e-02,
7.088750600814819336e-02,
1.521786302328109741e-01,
1.341778784990310669e-01,
1.125508993864059448e-01,
-1.275239437818527222e-01,
9.908267110586166382e-02,
1.147706247866153717e-02,
7.855988293886184692e-02,
-1.826778352260589600e-01,
-1.770783215761184692e-01,
6.788683682680130005e-02,
8.384453505277633667e-02,
-8.666634559631347656e-02,
-9.743080288171768188e-02,
-1.504365801811218262e-01,
-1.543858200311660767e-01,
1.463951170444488525e-01,
-1.605324447154998779e-01,
-5.389478802680969238e-02,
-7.373920083045959473e-02,
-1.315298862755298615e-02,
1.795580834150314331e-01,
1.507930457592010498e-01,
-1.303331404924392700e-01,
1.611280143260955811e-01,
-7.020831853151321411e-02,
-4.382585734128952026e-02,
-2.439765632152557373e-02,
8.109714835882186890e-03,
-7.263749092817306519e-02,
-1.385435760021209717e-01,
1.358916014432907104e-01,
1.872217208147048950e-01,
5.021493509411811829e-02,
1.302732527256011963e-01,
-2.058483213186264038e-01,
-6.264823675155639648e-02,
-1.625780016183853149e-01,
-1.294490396976470947e-01,
7.396785076707601547e-03,
1.442611068487167358e-01,
9.496839344501495361e-02,
-2.891508489847183228e-02,
-1.575451344251632690e-01,
4.769369214773178101e-02,
1.345829814672470093e-01,
1.401545554399490356e-01,
-1.968655735254287720e-02,
2.032241523265838623e-01,
-1.688666641712188721e-01,
-8.858492225408554077e-02,
8.732274174690246582e-02,
-8.195456117391586304e-02,
-1.079947799444198608e-01,
1.136406064033508301e-01,
-4.540851339697837830e-02,
9.359931945800781250e-02,
-4.931621626019477844e-02,
1.969150640070438385e-02,
1.241769641637802124e-01,
-2.131750881671905518e-01,
1.240253373980522156e-01,
7.122939918190240860e-03,
1.263291090726852417e-01,
3.149255737662315369e-02,
1.076625958085060120e-01,
1.447008401155471802e-01,
-1.646494567394256592e-01,
1.499259322881698608e-01,
-7.235990837216377258e-03,
9.353400021791458130e-02,
1.631936430931091309e-01,
2.496731095016002655e-02,
-5.180760053917765617e-04,
-1.112109329551458359e-02,
1.299256682395935059e-01,
-1.901942640542984009e-01,
-7.442384958267211914e-02,
-1.545805931091308594e-01,
-3.580116108059883118e-02,
-8.630938082933425903e-02,
1.191859040409326553e-02,
1.778241395950317383e-01,
-9.661899507045745850e-02,
9.251645207405090332e-02,
-8.043389767408370972e-02,
-1.042354032397270203e-01,
-9.544181823730468750e-02,
1.714617311954498291e-01,
1.324948668479919434e-01,
-1.657846421003341675e-01,
-1.798316091299057007e-01,
4.883487895131111145e-02,
-1.516518592834472656e-01,
-1.585873812437057495e-01,
1.467111110687255859e-01,
-8.478540927171707153e-02,
1.726413518190383911e-01,
-1.761143654584884644e-01,
1.023496091365814209e-01,
-3.416798263788223267e-02,
-1.441432535648345947e-01,
5.746680498123168945e-02,
-8.361531794071197510e-02,
1.405137628316879272e-01,
-1.504901051521301270e-01,
-6.036525964736938477e-02,
1.217610165476799011e-01,
3.663228079676628113e-02,
9.696815907955169678e-02,
-9.851507842540740967e-02,
9.659879654645919800e-02,
-1.183876544237136841e-01,
1.584979519248008728e-02,
1.505303084850311279e-01,
-3.298323228955268860e-02,
2.610385231673717499e-02,
1.823728680610656738e-01,
-1.748837530612945557e-01,
1.884709596633911133e-01,
-5.980779975652694702e-02,
-2.955491282045841217e-02,
4.873234406113624573e-02,
1.114571914076805115e-01,
-5.037040263414382935e-02,
1.066544428467750549e-01,
5.356625653803348541e-03,
-1.538220606744289398e-02,
-5.954853072762489319e-02,
1.281702369451522827e-01,
-6.912213563919067383e-02,
-3.382468968629837036e-02,
-6.838325411081314087e-02,
7.146292924880981445e-02,
2.991582453250885010e-02,
1.651719063520431519e-01,
1.337895542383193970e-01,
5.284942314028739929e-02,
-3.857354167848825455e-03,
3.516448661684989929e-02,
-6.494806706905364990e-02,
-1.086877435445785522e-01,
1.197520494461059570e-01,
-1.573124527931213379e-01,
1.209347322583198547e-01,
-1.717543601989746094e-01,
-8.407941460609436035e-02,
9.478326141834259033e-02,
6.496486067771911621e-02,
-1.189490482211112976e-01,
-1.145991757512092590e-01,
1.956469193100929260e-02,
-1.198761910200119019e-01,
-4.514938965439796448e-02,
8.833132684230804443e-02,
5.266810953617095947e-02,
1.742631010711193085e-02,
2.379361167550086975e-02,
-1.111385449767112732e-01,
-4.053315147757530212e-02,
-1.335623413324356079e-01,
1.512857377529144287e-01,
-1.009422242641448975e-01,
8.949682861566543579e-02,
1.020564734935760498e-01,
3.655110299587249756e-02,
3.293555974960327148e-02,
6.963192671537399292e-02,
1.326081603765487671e-01,
-4.410604014992713928e-02,
9.117403626441955566e-02,
-1.556244865059852600e-02,
-1.278247982263565063e-01,
-5.971912667155265808e-02,
6.457062065601348877e-02,
8.621668070554733276e-02,
3.038221597671508789e-02,
-4.839396104216575623e-02,
7.163754850625991821e-02,
-2.617323771119117737e-02,
-1.679574996232986450e-01,
1.700304597616195679e-01,
3.890436142683029175e-02,
-2.360301278531551361e-02,
-1.762817800045013428e-01,
-8.474313654005527496e-03,
1.669547110795974731e-01,
1.476785391569137573e-01,
2.343067899346351624e-02,
3.771290555596351624e-02,
1.415272802114486694e-02,
-1.004253104329109192e-01,
1.649030745029449463e-01,
1.831538416445255280e-02,
-5.866299197077751160e-02,
-2.136073857545852661e-01,
-9.622913785278797150e-03,
2.176943235099315643e-02,
1.827649176120758057e-01,
-9.394305758178234100e-03,
-1.511537730693817139e-01,
1.273828893899917603e-01,
7.871600240468978882e-02,
-2.934466488659381866e-02,
1.976714879274368286e-01,
4.359652847051620483e-02,
1.052478048950433731e-02,
1.560472398996353149e-01,
8.466017246246337891e-02,
-1.381371766328811646e-01,
1.354391425848007202e-01,
-1.191301196813583374e-01,
2.148727178573608398e-01,
-4.571945592761039734e-02,
-1.841461062431335449e-01,
-1.151280254125595093e-01,
1.974884867668151855e-01,
-7.286652922630310059e-02,
-2.247587777674198151e-02,
1.509397029876708984e-01,
-6.007053703069686890e-02,
1.949829608201980591e-01,
7.274603843688964844e-02,
1.737859100103378296e-01,
-8.320283889770507812e-02,
4.611506685614585876e-02,
5.931577831506729126e-02,
1.004918012768030167e-02,
1.419562548398971558e-01,
3.202457726001739502e-02,
-1.171711087226867676e-01,
-9.364360570907592773e-02,
1.232576891779899597e-01,
-1.024970412254333496e-01,
4.553377255797386169e-02,
1.249941885471343994e-01,
1.756534278392791748e-01,
-6.426907330751419067e-02,
8.567250519990921021e-02,
8.963905274868011475e-02,
-8.497753739356994629e-02,
1.245000958442687988e-01,
-7.386647164821624756e-02,
-1.046713814139366150e-01,
-9.483243525028228760e-02,
-3.914815932512283325e-02,
1.065734177827835083e-01,
9.748277813196182251e-02,
-1.220439821481704712e-01,
8.175003528594970703e-02,
7.103035598993301392e-02,
-1.524944156408309937e-01,
-8.317037671804428101e-02,
9.760908782482147217e-02,
1.006414517760276794e-01,
5.278668552637100220e-02,
-1.921004056930541992e-02,
-1.633806973695755005e-01,
-3.269721195101737976e-02,
-8.678887784481048584e-02,
6.954261660575866699e-02,
-4.856000468134880066e-02,
1.702873110771179199e-01,
-4.511712864041328430e-02,
1.224634721875190735e-01,
-1.567142456769943237e-01,
-1.575371436774730682e-02,
7.524655759334564209e-02,
8.233843743801116943e-02,
1.733956336975097656e-01,
-1.220472976565361023e-01,
-8.865819871425628662e-02,
1.697516590356826782e-01,
-5.263037607073783875e-02,
-1.386227458715438843e-02,
1.118942573666572571e-01,
-1.686326414346694946e-01,
-3.522920235991477966e-02,
4.997206106781959534e-02,
1.343813389539718628e-01,
-1.164870262145996094e-01,
6.571526825428009033e-02,
-1.836672872304916382e-01,
-8.247402496635913849e-03,
1.539935171604156494e-01,
-1.192999407649040222e-01,
2.148830294609069824e-01,
4.915066435933113098e-02,
8.159179985523223877e-02,
8.542287349700927734e-02,
-8.580458234064280987e-04,
2.237593755125999451e-02,
1.044268831610679626e-01,
-4.095898941159248352e-03,
1.561482548713684082e-01,
8.908775448799133301e-02,
7.196900248527526855e-02,
-8.279207348823547363e-02,
-9.452669322490692139e-02,
6.498890370130538940e-02,
-9.593316912651062012e-02,
1.276262998580932617e-01,
1.468420773744583130e-01,
-1.503136288374662399e-02,
-4.114931076765060425e-02,
-1.387144438922405243e-02,
8.000527322292327881e-02,
9.348099678754806519e-02,
1.434668153524398804e-01,
-3.820656239986419678e-02,
-1.438807249069213867e-01,
-7.460132241249084473e-02,
-4.145840182900428772e-02,
-6.629599630832672119e-02,
9.164679795503616333e-02,
4.968192055821418762e-02,
-1.113954409956932068e-01,
-6.380452960729598999e-02,
-1.185104921460151672e-01,
5.478585138916969299e-02,
9.832799434661865234e-03,
1.291702985763549805e-01,
2.464877627789974213e-02,
1.173742339015007019e-01,
1.220774948596954346e-01,
-1.185527220368385315e-01,
-3.305051103234291077e-02,
6.703533232212066650e-02,
1.041742265224456787e-01,
-9.613239765167236328e-02,
7.330065220594406128e-02,
-1.765372455120086670e-01,
6.164287775754928589e-02,
-8.462371304631233215e-03,
-5.894878879189491272e-02,
-3.630591183900833130e-02,
-6.045841053128242493e-02,
-1.275921463966369629e-01,
9.117507375776767731e-03,
1.125948280096054077e-01,
-5.486471951007843018e-02,
1.499924361705780029e-01,
1.531793735921382904e-02,
-2.979980781674385071e-02,
-2.837965078651905060e-02,
-1.674750596284866333e-01,
-8.705804124474525452e-03,
-1.696285754442214966e-01,
1.363974660634994507e-01,
-4.683434963226318359e-02,
1.104154158383607864e-02,
1.196868121623992920e-01,
1.144343391060829163e-01,
-1.233981475234031677e-01,
9.911118447780609131e-02,
1.710513979196548462e-01,
-2.351526170969009399e-02,
1.507623642683029175e-01,
-1.866229772567749023e-01,
-1.371765881776809692e-01,
1.230369806289672852e-01,
-3.080292977392673492e-02,
-1.822987943887710571e-01,
5.966531112790107727e-02,
-1.881750226020812988e-01,
-3.178181499242782593e-02,
1.372697204351425171e-01,
5.771053954958915710e-02,
-1.093475073575973511e-01,
1.459230184555053711e-01,
-1.844980120658874512e-01,
1.638163477182388306e-01,
-4.911349341273307800e-02,
-3.770876303315162659e-02,
-1.398339569568634033e-01,
4.990482330322265625e-02,
2.347435355186462402e-01,
1.315118074417114258e-01,
-6.465195864439010620e-02,
1.142210960388183594e-01,
-3.579260781407356262e-02,
5.395763367414474487e-02,
-1.585980653762817383e-01,
5.560086295008659363e-02,
6.369397789239883423e-02,
1.038319244980812073e-01,
-9.194988757371902466e-03,
-1.394034475088119507e-01,
-1.516855061054229736e-01,
1.554628461599349976e-01,
-1.772862523794174194e-01,
4.428358003497123718e-02,
2.140545658767223358e-02,
-1.805642098188400269e-01,
-1.311733722686767578e-01,
7.052008807659149170e-02,
-1.290525496006011963e-02,
-8.381294459104537964e-02,
1.791937649250030518e-01,
1.467382609844207764e-01,
-1.241548135876655579e-01,
-2.041969075798988342e-02,
4.104173555970191956e-02,
-9.316965937614440918e-02,
-1.828033626079559326e-01,
-3.621571511030197144e-02,
-7.360734790563583374e-02,
1.610094904899597168e-01,
-6.394715607166290283e-02,
-5.799801647663116455e-02,
-1.453483253717422485e-01,
-2.422772161662578583e-02,
1.875043362379074097e-01,
-7.363426685333251953e-02,
2.942387387156486511e-02,
-9.091594815254211426e-02,
-7.032360881567001343e-02,
-8.260511793196201324e-03,
9.849940985441207886e-02,
2.817694284021854401e-02,
2.062359154224395752e-01,
-7.889342308044433594e-02,
-1.171069070696830750e-01,
1.940152496099472046e-01,
1.271150261163711548e-02,
9.789196401834487915e-02,
-1.830632388591766357e-01,
-1.562921553850173950e-01,
-4.261229769326746464e-04,
-1.342333257198333740e-01,
1.702927798032760620e-01,
2.976689254865050316e-03,
-1.038310006260871887e-01,
-1.137224026024341583e-02,
1.730921268463134766e-01,
7.292121648788452148e-03,
-1.947089880704879761e-01,
-3.693388774991035461e-02,
-1.526800543069839478e-01,
1.179520860314369202e-01,
-1.721854880452156067e-02,
-5.607619881629943848e-02,
8.654412813484668732e-03,
-2.175701037049293518e-02,
8.721598237752914429e-02,
-6.505461782217025757e-02,
1.006313860416412354e-01,
-2.834069356322288513e-02,
-1.369840204715728760e-01,
1.571937203407287598e-01,
1.082643195986747742e-01,
-2.524790354073047638e-02,
2.359702251851558685e-02,
6.517617404460906982e-02,
-5.882773920893669128e-02,
-1.532062292098999023e-01,
-1.217819154262542725e-01,
-1.382347792387008667e-01,
7.585586607456207275e-02,
-6.132750213146209717e-02,
-8.818372339010238647e-02,
6.275366991758346558e-03,
-5.278639961034059525e-03,
6.823202967643737793e-02,
8.554879575967788696e-02,
1.117244958877563477e-01,
-1.570210307836532593e-01,
1.631637215614318848e-01,
7.325205486267805099e-03,
5.944584682583808899e-02,
-2.046784162521362305e-01,
-9.294652193784713745e-02,
-1.518992185592651367e-01,
5.472167208790779114e-02,
2.984960749745368958e-02,
1.183290332555770874e-01,
-4.010019451379776001e-02,
1.530127227306365967e-01,
1.738930121064186096e-02,
-1.536802798509597778e-01,
-1.771676689386367798e-01,
1.894675791263580322e-01,
-8.885339647531509399e-02,
2.095399945974349976e-01,
-2.862216718494892120e-02,
-1.644006557762622833e-02,
1.705208420753479004e-01,
-2.844695374369621277e-02,
-6.630395352840423584e-02,
-7.540782541036605835e-02,
2.548789791762828827e-02,
2.939627505838871002e-02,
1.681903004646301270e-01,
-9.546873718500137329e-02,
-1.254259794950485229e-02,
2.028253823518753052e-01,
-9.200914949178695679e-02,
1.370100975036621094e-01,
6.175241619348526001e-02,
-5.847324430942535400e-02,
1.023347675800323486e-01,
1.470035016536712646e-01,
1.849143952131271362e-01,
-1.682051718235015869e-01,
3.382841125130653381e-02,
1.170389503240585327e-01,
-8.192718774080276489e-02,
-1.583435982465744019e-01,
1.696010679006576538e-01,
4.510910809040069580e-02,
-8.455794304609298706e-02,
-1.687920093536376953e-01,
1.373282521963119507e-01,
-1.362565010786056519e-01,
-6.347918510437011719e-02,
-1.586001599207520485e-03,
7.155802100896835327e-02,
1.269282996654510498e-01,
-9.340558201074600220e-02,
-7.232360076159238815e-05,
-3.847869485616683960e-02,
-6.666659563779830933e-02,
7.577788084745407104e-02,
-5.266928300261497498e-02,
-6.400023400783538818e-02,
3.928751498460769653e-02,
3.303724527359008789e-02,
1.467138528823852539e-01,
-2.670621871948242188e-02,
8.239537477493286133e-02,
-6.873036921024322510e-02,
-1.333474069833755493e-01,
1.571939885616302490e-02,
4.552222788333892822e-02,
-7.890607416629791260e-02,
7.879620790481567383e-02,
1.184129416942596436e-01,
-2.165001630783081055e-02,
-1.605004966259002686e-01,
1.342667937278747559e-01,
9.794396162033081055e-02,
2.436491847038269043e-02,
-2.170795202255249023e-02,
1.573827266693115234e-01,
-5.266626179218292236e-02,
1.615439057350158691e-01,
-7.214879244565963745e-02,
3.992100059986114502e-02,
8.158162236213684082e-02,
-1.488047242164611816e-01,
5.247899889945983887e-02,
1.109485328197479248e-01,
-3.755314648151397705e-02,
-4.884879663586616516e-02,
-7.676926255226135254e-02,
1.625494956970214844e-01,
1.542498171329498291e-01,
3.398520126938819885e-02,
-8.340693265199661255e-02,
-5.435042455792427063e-02,
1.514488086104393005e-02,
-3.961867839097976685e-02,
1.681360453367233276e-01,
-1.851440668106079102e-01,
-1.130828354507684708e-02,
2.438101219013333321e-03,
-5.053635686635971069e-02,
3.706383332610130310e-02,
2.175833843648433685e-02,
-1.054234523326158524e-02,
1.489233076572418213e-01,
-4.691404476761817932e-02,
-1.028953120112419128e-01,
3.038924932479858398e-02,
-5.499380826950073242e-02,
-3.598068282008171082e-02,
-1.113190799951553345e-01,
8.544697612524032593e-02,
-1.614231914281845093e-01,
-1.510578095912933350e-01,
1.482455134391784668e-01,
4.296105727553367615e-02,
-6.140181794762611389e-02,
1.112317945808172226e-02,
9.071078151464462280e-02,
-1.430281549692153931e-01,
5.658305808901786804e-02,
2.552491798996925354e-02,
-1.132078915834426880e-01,
9.756615012884140015e-02,
-1.372063457965850830e-01,
2.630514092743396759e-02,
-1.855876147747039795e-01,
1.568771153688430786e-01,
-1.275688223540782928e-02,
-1.046123430132865906e-01,
-5.155536532402038574e-02,
-1.831728219985961914e-02,
1.386456340551376343e-01,
-1.570004820823669434e-01,
-9.446010924875736237e-03,
1.227233633399009705e-01,
-7.152390480041503906e-02,
1.776929795742034912e-01,
-1.315575391054153442e-01,
1.302559524774551392e-01,
-7.727003842592239380e-02,
-1.761727035045623779e-01,
-1.696287840604782104e-01,
1.542370468378067017e-01,
-8.580260723829269409e-02,
-9.940407425165176392e-02,
1.893584579229354858e-01,
-1.004639193415641785e-01,
1.120757833123207092e-01,
-1.720809005200862885e-02,
5.726247280836105347e-02,
-9.011795371770858765e-02,
-1.642510294914245605e-01,
-3.586106747388839722e-02,
2.780461683869361877e-02,
1.640422344207763672e-01,
-5.119249224662780762e-02,
-3.728371486067771912e-02,
-1.164530068635940552e-01,
-3.441806882619857788e-03,
-1.463715434074401855e-01,
-9.181582182645797729e-02,
1.304806470870971680e-01,
4.154950752854347229e-02,
-1.102416589856147766e-01,
1.384953856468200684e-01,
2.652491070330142975e-02,
-1.213259156793355942e-02,
-1.503532081842422485e-01,
-1.690435707569122314e-01,
-1.684191524982452393e-01,
1.581971794366836548e-01,
1.660436242818832397e-01,
-9.001253172755241394e-03,
1.808880567550659180e-01,
-1.061834469437599182e-01,
-1.138071492314338684e-01,
9.073451161384582520e-02,
1.187107712030410767e-01,
-1.520009040832519531e-01,
-1.431990414857864380e-01,
1.471101492643356323e-01,
1.942072212696075439e-01,
1.049150004982948303e-01,
-1.616702526807785034e-01,
2.863475680351257324e-02,
-4.219387471675872803e-02,
-8.729016780853271484e-02,
3.086705319583415985e-02,
-8.988817036151885986e-02,
-9.864309104159474373e-04,
4.745960608124732971e-02,
-7.163844257593154907e-02,
-1.075141727924346924e-01,
1.362351626157760620e-01,
1.975318603217601776e-02,
-1.343307197093963623e-01,
-1.373940557241439819e-01,
9.369927644729614258e-02,
1.450815349817276001e-01,
3.660123795270919800e-02,
1.016521528363227844e-01,
-5.059820413589477539e-02,
6.861934904009103775e-03,
1.116837337613105774e-01,
1.620170474052429199e-02,
7.252365350723266602e-02,
1.311588734388351440e-01,
-1.087491884827613831e-01,
9.997760504484176636e-02,
1.686519384384155273e-01,
-2.500059083104133606e-02,
4.417272284626960754e-02,
1.490135192871093750e-01,
-2.244864823296666145e-03,
-2.931602112948894501e-02,
1.950864940881729126e-01,
5.956339091062545776e-02,
-6.877970695495605469e-02,
2.037654258310794830e-02,
-3.430604189634323120e-02,
-1.583050638437271118e-01,
-1.497918367385864258e-01,
-1.217934675514698029e-02,
9.229300543665885925e-03,
-1.049122884869575500e-01,
-4.086718335747718811e-02,
1.252326071262359619e-01,
-1.482919603586196899e-01,
7.491113245487213135e-02,
1.418714132159948349e-02,
-4.285375121980905533e-03,
1.415605563670396805e-02,
3.585660085082054138e-02,
5.578213185071945190e-02,
-4.241895675659179688e-02,
-5.910155922174453735e-02,
-1.650207489728927612e-01,
-1.268188953399658203e-01,
-1.921301633119583130e-01,
-1.652221232652664185e-01,
-1.705471277236938477e-01,
-5.373123660683631897e-02,
-5.305074527859687805e-02,
1.080935969948768616e-01,
-1.124266684055328369e-01,
-1.948977261781692505e-02,
4.377566743642091751e-03,
7.937281578779220581e-02,
1.776791363954544067e-01,
1.722416430711746216e-01,
1.374873965978622437e-01,
-1.087616011500358582e-01,
-1.460014097392559052e-02,
8.699157088994979858e-02,
1.676629334688186646e-01,
-1.171796694397926331e-01,
-2.339730598032474518e-02,
1.084745209664106369e-02,
1.845740377902984619e-01,
-9.604138880968093872e-02,
7.386865466833114624e-02,
7.101023942232131958e-02,
7.263503968715667725e-02,
-5.266131460666656494e-02,
-1.173292249441146851e-01,
-9.037820249795913696e-02,
-5.213625356554985046e-02,
-1.818157434463500977e-01,
1.163234636187553406e-01,
-6.752984970808029175e-02,
2.546684071421623230e-02,
-2.369712851941585541e-02,
1.911318898200988770e-01,
1.343620717525482178e-01,
-1.378601193428039551e-01,
-1.072769090533256531e-01,
-8.874104917049407959e-02,
-1.741454601287841797e-01,
1.429622769355773926e-01,
1.825393922626972198e-02,
-1.612102091312408447e-01,
-8.931739255785942078e-03,
1.009117662906646729e-01,
1.694896817207336426e-01,
9.020444005727767944e-02,
1.319719702005386353e-01,
-4.742928594350814819e-02,
-1.740895807743072510e-01,
-9.046112000942230225e-02,
8.524500578641891479e-02,
1.498086601495742798e-01,
1.325336396694183350e-01,
1.064349859952926636e-01,
1.200768351554870605e-02,
1.254637241363525391e-01,
-4.825127869844436646e-02,
1.102027818560600281e-01,
-7.434493303298950195e-02,
-5.434793606400489807e-02,
-1.185551434755325317e-01,
1.422849297523498535e-01,
-1.907031238079071045e-01,
-1.830118447542190552e-01,
-1.404747217893600464e-01,
-1.011818051338195801e-01,
1.365038454532623291e-01,
-4.879629611968994141e-02,
1.280889660120010376e-01,
-1.619968563318252563e-01,
-2.476829476654529572e-02,
-1.250120848417282104e-01,
1.735571622848510742e-01,
1.863918900489807129e-01,
2.124678194522857666e-01,
1.953053921461105347e-01,
-3.653776273131370544e-02,
1.099017634987831116e-01,
-1.469559222459793091e-01,
5.320978164672851562e-02,
1.689088344573974609e-01,
1.659513711929321289e-01,
1.386741995811462402e-01,
1.118354871869087219e-01,
-7.231201231479644775e-02,
-1.740610785782337189e-02,
2.035595476627349854e-01,
1.538317948579788208e-01,
6.853371113538742065e-02,
1.264018565416336060e-01,
7.831429690122604370e-02,
1.660009920597076416e-01,
-7.955434173345565796e-02,
1.370134204626083374e-01,
-1.292192786931991577e-01,
5.005456134676933289e-02,
-6.512362509965896606e-02,
4.936664551496505737e-02,
-1.553905755281448364e-01,
1.947729289531707764e-02,
1.448556631803512573e-01,
-1.788832843303680420e-01,
1.364681571722030640e-01,
9.067913889884948730e-02,
-4.534053429961204529e-02,
6.268835812807083130e-02,
-1.845494098961353302e-02,
-1.022249832749366760e-01,
-5.564439669251441956e-02,
1.611414253711700439e-01,
3.482203185558319092e-02,
-7.824686914682388306e-02,
-1.759285666048526764e-02,
1.407380104064941406e-01,
-5.959973484277725220e-02,
-1.701025068759918213e-01,
1.876324415206909180e-02,
-6.353259831666946411e-02,
1.384097039699554443e-01,
-1.043580323457717896e-01,
-1.185838207602500916e-01,
-1.614694148302078247e-01,
-7.343274354934692383e-02,
1.027380377054214478e-01,
2.622435800731182098e-03,
-1.566780805587768555e-01,
1.172120943665504456e-01,
-1.458449512720108032e-01,
1.741146743297576904e-01,
1.612199395895004272e-01,
-1.450742501765489578e-02,
6.434777169488370419e-04,
-1.286446750164031982e-01,
1.057051345705986023e-01,
1.410499066114425659e-01,
6.791341304779052734e-02,
-1.802090257406234741e-01,
1.832748353481292725e-01,
1.094516515731811523e-01,
-6.214883551001548767e-02,
1.363723278045654297e-01,
1.519833505153656006e-01,
-1.716998666524887085e-01,
2.985405735671520233e-02,
1.135831251740455627e-01,
1.873188912868499756e-01,
-1.603695452213287354e-01,
-1.268017143011093140e-01,
-1.871903091669082642e-01,
-9.525517374277114868e-02,
-1.672546118497848511e-01,
1.075349748134613037e-01,
2.434965409338474274e-02,
-1.177579537034034729e-01,
-3.845046740025281906e-04,
-1.193275004625320435e-01,
5.815165117383003235e-02,
5.747269466519355774e-02,
4.106727614998817444e-02,
1.463177502155303955e-01,
3.187408298254013062e-02,
8.697128295898437500e-02,
-1.156742423772811890e-01,
-1.781973056495189667e-02,
8.725526183843612671e-02,
1.374294399283826351e-03,
-1.777451187372207642e-01,
1.647499650716781616e-01,
1.297642588615417480e-01,
1.222602352499961853e-01,
6.327114999294281006e-02,
-1.389725506305694580e-01,
6.608740892261266708e-03,
-1.977532356977462769e-01,
1.077957376837730408e-01,
1.193905472755432129e-01,
-1.686344444751739502e-01,
-1.595058105885982513e-02,
-1.050588488578796387e-01,
6.058996170759201050e-02,
-4.636457562446594238e-02,
8.498631417751312256e-02,
6.026808544993400574e-02,
-5.535418540239334106e-02,
1.756515353918075562e-01,
-1.740317195653915405e-01,
1.031407993286848068e-02,
1.600276976823806763e-01,
6.322669982910156250e-02,
2.483356185257434845e-02,
2.046413160860538483e-02,
-1.202620565891265869e-01,
4.394892603158950806e-02,
-1.380220502614974976e-01,
-5.878623574972152710e-02,
-3.144957870244979858e-02,
-1.367191672325134277e-01,
3.560371464118361473e-03,
-1.834021881222724915e-02,
-1.282449811697006226e-01,
-1.231436617672443390e-02,
6.427966989576816559e-03,
1.479180008172988892e-01,
-8.092850446701049805e-02,
1.571755260229110718e-01,
1.175477504730224609e-01,
1.665903031826019287e-01,
1.496313959360122681e-01,
-1.256016343832015991e-01,
-3.062590584158897400e-02,
1.192146390676498413e-01,
1.839680820703506470e-01,
1.637567430734634399e-01,
-9.394060820341110229e-02,
2.478686906397342682e-02,
1.413723081350326538e-01,
1.666288673877716064e-01,
-1.450399160385131836e-01,
-1.391869876533746719e-02,
1.812121830880641937e-02,
3.959826752543449402e-02,
7.731346040964126587e-02,
-4.358306527137756348e-02,
-7.309068739414215088e-02,
9.767220169305801392e-02,
1.461935043334960938e-01,
-1.815843954682350159e-02,
3.564709052443504333e-02,
-1.164052635431289673e-01,
3.338092565536499023e-02,
-1.332841068506240845e-01,
-8.934224396944046021e-02,
1.535586565732955933e-01,
7.461822032928466797e-02,
-7.646197080612182617e-02,
-1.877043209969997406e-02,
-2.511824294924736023e-02,
-2.286729775369167328e-02,
-8.879806101322174072e-02,
-5.169526487588882446e-02,
-3.937852755188941956e-02,
1.630732566118240356e-01,
1.342280209064483643e-01,
1.956006325781345367e-02,
2.184205502271652222e-02,
2.180653624236583710e-02,
1.448564976453781128e-01,
-9.443753957748413086e-02,
7.716989517211914062e-02,
-1.742893010377883911e-01,
1.293672025203704834e-01,
-1.291335076093673706e-01,
1.496597379446029663e-01,
1.469432748854160309e-02,
-1.714544743299484253e-01,
1.045073047280311584e-01,
1.287059485912322998e-01,
-1.817029528319835663e-02,
-5.381497740745544434e-02,
-1.482593119144439697e-01,
-7.826110720634460449e-02,
-4.032985121011734009e-02,
-6.416875869035720825e-02,
3.387975692749023438e-02,
-9.267020970582962036e-02,
-1.227021440863609314e-01,
-3.585894405841827393e-02,
4.877060651779174805e-02,
1.862752139568328857e-01,
4.717591032385826111e-02,
1.129962354898452759e-01,
-2.340533025562763214e-02,
-1.010384559631347656e-01,
1.534048616886138916e-01,
1.796747371554374695e-02,
8.375435322523117065e-02,
-7.286761701107025146e-02,
1.261171847581863403e-01,
5.827412009239196777e-02,
4.969439283013343811e-02,
-1.723225116729736328e-01,
-1.736175864934921265e-01,
2.724938653409481049e-02,
-6.728602200746536255e-02,
-1.733894050121307373e-01,
-1.246199309825897217e-01,
1.139483377337455750e-01,
-1.303306519985198975e-01,
-1.374275237321853638e-01,
6.485699862241744995e-02,
1.066867485642433167e-01,
-7.464833557605743408e-02,
-4.572120308876037598e-02,
1.439364254474639893e-01,
-4.111439362168312073e-02,
7.616326212882995605e-02,
1.366442590951919556e-01,
1.242344900965690613e-01,
1.257653534412384033e-01,
-5.496167391538619995e-02,
-1.486598849296569824e-01,
9.371666610240936279e-02,
-2.595735900104045868e-02,
3.901842609047889709e-02,
-3.116515651345252991e-02,
3.195753693580627441e-02,
-3.964848071336746216e-02,
-1.347503960132598877e-01,
1.313695460557937622e-01,
1.050777658820152283e-01,
-8.818238228559494019e-02,
9.017932415008544922e-02,
1.928138732910156250e-01,
-2.001816928386688232e-01,
1.687393933534622192e-01,
-1.300141960382461548e-01,
-1.807832270860671997e-01,
1.799541413784027100e-01,
-2.025685608386993408e-01,
-1.426093578338623047e-01,
-8.398856967687606812e-02,
-1.402359157800674438e-01,
-1.380492895841598511e-01,
1.296275407075881958e-01,
-1.694796681404113770e-01,
9.629331529140472412e-02,
-1.348481029272079468e-01,
-1.586003750562667847e-01,
1.282048970460891724e-01,
-1.805295199155807495e-01,
6.021074205636978149e-02,
2.811324968934059143e-02,
-1.458628922700881958e-01,
6.310978531837463379e-02,
-1.751910597085952759e-01,
2.430642955005168915e-02,
-1.010423749685287476e-01,
7.332822680473327637e-02,
-7.525633275508880615e-02,
-1.070159375667572021e-01,
-5.540391057729721069e-02,
-2.276663109660148621e-02,
1.636459082365036011e-01,
-9.211710840463638306e-02,
9.263725951313972473e-03,
-5.484176799654960632e-02,
2.267926745116710663e-02,
1.366316974163055420e-01,
6.900773197412490845e-02,
-6.108340248465538025e-02,
-1.578346490859985352e-01,
-7.015657424926757812e-02,
4.251756891608238220e-02,
-1.329762190580368042e-01,
-8.850567042827606201e-03,
6.219962239265441895e-02,
-3.800101345404982567e-03,
1.582199633121490479e-01,
1.426075100898742676e-01,
-3.360446169972419739e-02,
-5.965594574809074402e-02,
-1.465826928615570068e-01,
-1.238980442285537720e-01,
-3.108385577797889709e-02,
1.503374278545379639e-01,
-1.057287827134132385e-01,
8.750757575035095215e-02,
-1.652116775512695312e-01,
-4.501057043671607971e-02,
6.393571943044662476e-02,
1.796445064246654510e-02,
-6.299548596143722534e-02,
5.701747164130210876e-02,
-4.913004860281944275e-02,
5.323764309287071228e-02,
-4.936460778117179871e-02,
2.528777159750461578e-02,
-1.140030026435852051e-01,
-6.924711912870407104e-02,
8.160513639450073242e-02,
-2.310441061854362488e-02,
-1.537134796380996704e-01,
-1.770957708358764648e-01,
8.185257017612457275e-02,
7.236297428607940674e-02,
-6.132798641920089722e-02,
1.748311668634414673e-01,
-1.298233419656753540e-01,
1.747588217258453369e-01,
-5.564440786838531494e-02,
8.533614873886108398e-02,
8.540434762835502625e-03,
5.069833993911743164e-02,
1.019684821367263794e-01,
9.727264940738677979e-02,
-8.885157108306884766e-02,
3.901130333542823792e-02,
1.472234278917312622e-01,
-1.736875027418136597e-01,
1.596012860536575317e-01,
3.880942985415458679e-02,
-5.132700316607952118e-03,
-1.247200146317481995e-01,
-3.840019926428794861e-02,
1.434783637523651123e-01,
-3.448853641748428345e-02,
-9.926126152276992798e-02,
2.027890533208847046e-01,
1.501738578081130981e-01,
-1.758226566016674042e-02,
1.704793572425842285e-01,
2.101922407746315002e-03,
-1.101527959108352661e-01,
-8.693549036979675293e-02,
-8.891191333532333374e-02,
6.848729401826858521e-02,
1.068575233221054077e-01,
-8.479975908994674683e-02,
1.375469565391540527e-01,
5.670229345560073853e-02,
1.229874603450298309e-02,
-2.568559348583221436e-02,
2.384017221629619598e-02,
2.301176935434341431e-01,
1.168303042650222778e-01,
-1.424550563097000122e-01,
3.254355117678642273e-02,
-1.532877683639526367e-01,
-3.858271986246109009e-02,
1.259155571460723877e-01,
1.585621088743209839e-01,
5.987891554832458496e-02,
-1.709848642349243164e-02,
1.056525781750679016e-01,
3.314894065260887146e-02,
-1.158428564667701721e-01,
-7.425562292337417603e-02,
2.139403671026229858e-01,
1.357178986072540283e-01,
7.040967047214508057e-02,
1.314680278301239014e-01,
-7.932743057608604431e-03,
1.323288679122924805e-02,
-5.864203721284866333e-02,
-5.607800558209419250e-02,
-1.673668771982192993e-01,
-1.748800575733184814e-01,
-1.078054457902908325e-01,
1.453794240951538086e-01,
-5.354462191462516785e-02,
-1.779307238757610321e-02,
1.423252075910568237e-01,
-7.604910992085933685e-03,
-2.811695230775512755e-05,
1.678749769926071167e-01,
-1.272270828485488892e-01,
1.399166733026504517e-01,
1.529675573110580444e-01,
1.375974565744400024e-01,
-1.029280796647071838e-01,
-2.413113787770271301e-02,
-1.230001151561737061e-01,
-4.438230767846107483e-02,
7.112812995910644531e-02,
-1.157229952514171600e-02,
-1.059120595455169678e-01,
1.502207964658737183e-01,
3.322176635265350342e-02,
-7.780826836824417114e-02,
1.339587420225143433e-01,
-1.610658168792724609e-01,
-8.031464368104934692e-02,
-1.243189722299575806e-01,
1.190848872065544128e-01,
-6.512433290481567383e-02,
1.939426958560943604e-01,
1.164162382483482361e-01,
6.359102576971054077e-02,
2.702093496918678284e-02,
2.019490748643875122e-01,
2.173810079693794250e-02,
-8.491543680429458618e-02,
-5.637753382325172424e-02,
-1.484809443354606628e-02,
8.058457821607589722e-02,
1.302985101938247681e-01,
-1.973308809101581573e-02,
1.688693612813949585e-01,
1.259363144636154175e-01,
-4.421992972493171692e-02,
-8.969205617904663086e-02,
1.359983831644058228e-01,
-1.508778631687164307e-01,
-7.253299653530120850e-02,
1.518817842006683350e-01,
-7.271695882081985474e-02,
1.508409529924392700e-01,
-1.578837931156158447e-01,
-1.385281980037689209e-01,
1.508640050888061523e-01,
-1.198996789753437042e-03,
-1.767309159040451050e-01,
-6.344209611415863037e-02,
1.078417971730232239e-01,
4.275406152009963989e-02,
3.197282180190086365e-02,
2.417344041168689728e-02,
-9.547507762908935547e-02,
-1.657877117395401001e-02,
1.254025995731353760e-01,
-2.008827626705169678e-01,
2.063256315886974335e-02,
1.701664030551910400e-01,
8.263786137104034424e-02,
1.177541464567184448e-01,
1.205375716090202332e-01,
-2.863444760441780090e-02,
-1.426685154438018799e-01,
1.930170319974422455e-02,
-8.314155787229537964e-02,
1.110216751694679260e-01,
-9.930775314569473267e-02,
-1.332757025957107544e-01,
1.732529401779174805e-01,
-6.902315467596054077e-02,
1.272973120212554932e-01,
-1.178287938237190247e-01,
1.418024450540542603e-01,
8.268223702907562256e-02,
1.085237935185432434e-01,
-9.381468594074249268e-02,
1.424631178379058838e-01,
-3.725470602512359619e-02,
1.706378757953643799e-01,
-1.348244398832321167e-01,
-1.431706398725509644e-01,
-1.953946501016616821e-01,
1.851994693279266357e-01,
-5.525453761219978333e-02,
1.271389722824096680e-01,
-1.811646372079849243e-01,
1.133614182472229004e-01,
-1.476540118455886841e-01,
-3.903169184923171997e-03,
1.070001795887947083e-01,
-5.873195454478263855e-02,
-4.078782722353935242e-02,
1.662217527627944946e-01,
-1.526848673820495605e-01,
9.439475834369659424e-02,
4.926288872957229614e-02,
-1.478007137775421143e-01,
-2.918383106589317322e-02,
-1.846286095678806305e-02,
1.015187129378318787e-01,
1.847906708717346191e-01,
-9.992338018491864204e-04,
-6.028904393315315247e-02,
-1.210932806134223938e-01,
8.849214017391204834e-02,
1.842686533927917480e-01,
-2.916507236659526825e-02,
1.344611942768096924e-01,
-6.820257008075714111e-02,
1.837956458330154419e-01,
1.711366474628448486e-01,
-4.568005353212356567e-02,
9.540607780218124390e-02,
6.519273668527603149e-02,
-4.407250508666038513e-02,
7.941034436225891113e-02,
1.413447260856628418e-01,
-9.289617836475372314e-02,
-1.420892179012298584e-01,
-1.263322532176971436e-01,
-2.256049774587154388e-02,
2.526662126183509827e-02,
5.039144679903984070e-02,
-2.495468407869338989e-01,
-2.102906405925750732e-01,
-3.068169951438903809e-02,
1.006557792425155640e-01,
1.141269430518150330e-01,
3.290713205933570862e-02,
2.132773771882057190e-02,
-8.275471627712249756e-04,
-1.196274310350418091e-01,
9.787221252918243408e-02,
1.060319785028696060e-02,
-1.365272700786590576e-01,
-9.500334411859512329e-02,
-4.904536902904510498e-02,
-4.655431210994720459e-02,
-4.547853022813796997e-03,
1.807666569948196411e-02,
-5.237786471843719482e-02,
7.727625966072082520e-02,
-4.216233640909194946e-02,
1.105402875691652298e-02,
-1.261554192751646042e-02,
1.661242693662643433e-01,
1.019877269864082336e-01,
-5.043073371052742004e-02,
1.621574312448501587e-01,
1.287108957767486572e-01,
-2.696688473224639893e-02,
9.291973710060119629e-02,
1.905890703201293945e-01,
-1.263381075114011765e-02,
-1.679383665323257446e-01,
-6.966491788625717163e-02,
5.007099360227584839e-02,
2.890217863023281097e-02,
-1.262679845094680786e-01,
-1.375715285539627075e-01,
5.423945933580398560e-02,
-3.988844528794288635e-02,
-1.235614493489265442e-01,
-9.577833116054534912e-02,
1.849379837512969971e-01,
-1.582486480474472046e-01,
1.373680084943771362e-01,
-5.246523022651672363e-02,
1.538174450397491455e-01,
-1.671075224876403809e-01,
1.390911191701889038e-01,
1.255223900079727173e-01,
1.333755999803543091e-01,
-1.054498925805091858e-01,
-3.186597302556037903e-02,
-3.213447332382202148e-02,
-6.682523339986801147e-02,
-1.248778700828552246e-01,
-1.252617537975311279e-01,
-1.229419559240341187e-01,
-1.025050580501556396e-01,
3.489138185977935791e-02,
1.413504481315612793e-01,
-7.628640532493591309e-02,
-1.789978295564651489e-01,
-8.774177730083465576e-02,
-1.004853099584579468e-01,
-1.468820869922637939e-01,
-9.754587709903717041e-02,
-3.263726830482482910e-03,
-1.130001321434974670e-01,
6.328196823596954346e-02,
-3.491240739822387695e-02,
1.503169238567352295e-01,
1.249310374259948730e-02,
1.352798938751220703e-01,
6.981453299522399902e-02,
-1.435032635927200317e-01,
-6.620376557111740112e-02,
-7.297654449939727783e-02,
-1.245509237051010132e-01,
1.070295274257659912e-01,
9.992059320211410522e-02,
8.292034268379211426e-02,
1.451760157942771912e-02,
1.769368499517440796e-01,
-1.422325819730758667e-01,
-6.664126366376876831e-02,
-6.504620611667633057e-02,
-9.928834438323974609e-02,
1.974453404545783997e-02,
-1.754389852285385132e-01,
-1.192102730274200439e-01,
-1.100626215338706970e-01,
5.231245979666709900e-02,
-1.407947391271591187e-01,
1.146109476685523987e-01,
1.803908310830593109e-02,
6.449753791093826294e-02,
-1.137501280754804611e-02,
1.084433346986770630e-01,
-1.000076606869697571e-01,
-1.027251966297626495e-02,
-1.459460258483886719e-01,
-1.661111265420913696e-01,
-1.303221434354782104e-01,
7.386242970824241638e-03,
-1.082047745585441589e-01,
7.208334654569625854e-02,
-3.238602355122566223e-02,
1.266335844993591309e-01,
-5.704160407185554504e-02,
-2.772384136915206909e-02,
1.281967461109161377e-01,
-1.145781055092811584e-01,
-3.345250710844993591e-02,
-1.408689618110656738e-01,
-8.362627029418945312e-02,
-1.305814534425735474e-01,
-4.549739137291908264e-02,
-3.665506606921553612e-03,
1.686526536941528320e-01,
1.121637076139450073e-01,
-1.360310893505811691e-02,
2.351219654083251953e-01,
-7.142675668001174927e-02,
1.651178896427154541e-01,
-4.019306227564811707e-02,
-1.327407360076904297e-01,
1.128786206245422363e-01,
8.865854889154434204e-02,
7.128077000379562378e-02,
-1.379262004047632217e-02,
-1.805609464645385742e-01,
-1.768049597740173340e-01,
-6.206150725483894348e-02,
-1.363198757171630859e-01,
-1.118859574198722839e-01,
-6.197042763233184814e-02,
-2.353471145033836365e-02,
2.637166716158390045e-02,
-7.909267395734786987e-02,
-5.380894988775253296e-02,
-1.512030661106109619e-01,
-6.929968949407339096e-03,
1.446624994277954102e-01,
1.312574557960033417e-02,
5.993892624974250793e-02,
1.845047995448112488e-02,
-5.437612906098365784e-02,
-1.239063739776611328e-01,
-4.612996242940425873e-03,
1.225270107388496399e-01,
-1.281756348907947540e-02,
-3.631344810128211975e-02,
1.112640276551246643e-02,
-1.760134547948837280e-01,
1.181410104036331177e-01,
1.445466279983520508e-01,
1.271271258592605591e-01,
-5.410882830619812012e-02,
1.864846795797348022e-01,
1.858018636703491211e-01,
-4.899196326732635498e-02,
-1.541002541780471802e-01,
6.512834131717681885e-02,
-1.464230120182037354e-01,
-5.154047906398773193e-02,
2.695966884493827820e-02,
1.124581322073936462e-01,
-6.736798584461212158e-02,
4.251307621598243713e-02,
1.813528388738632202e-01,
1.062293648719787598e-01,
1.748622953891754150e-02,
5.157892033457756042e-02,
-1.142777800559997559e-01,
1.661939546465873718e-02,
-6.791473925113677979e-02,
3.419793397188186646e-02,
-6.704460084438323975e-02,
1.630658954381942749e-01,
-1.008905991911888123e-01,
-9.089502505958080292e-03,
-4.824962466955184937e-02,
9.700310975313186646e-02,
3.797163441777229309e-02,
2.127486281096935272e-02,
1.466454565525054932e-01,
-2.933579869568347931e-02,
2.508259192109107971e-02,
-1.550468057394027710e-02,
-4.890572279691696167e-02,
-1.178690567612648010e-01,
-1.678524315357208252e-01,
-8.867307752370834351e-02,
-1.686458289623260498e-01,
1.145610734820365906e-01,
2.281750738620758057e-02,
1.314679980278015137e-01,
-4.965321719646453857e-02,
-2.321165055036544800e-01,
1.334667950868606567e-01,
-2.096819691359996796e-02,
2.554616890847682953e-02,
-1.168203279376029968e-01,
-7.154745608568191528e-02,
-1.599921435117721558e-01,
8.298967033624649048e-02,
-1.814231276512145996e-01,
-8.698868006467819214e-02,
-1.020028665661811829e-01,
5.361475422978401184e-02,
-3.250867873430252075e-02,
3.955849632620811462e-02,
1.488383859395980835e-01,
1.332457214593887329e-01,
7.703189551830291748e-02,
7.541242986917495728e-02,
-1.165557354688644409e-01,
-2.085626870393753052e-01,
1.758294999599456787e-01,
7.876002043485641479e-02,
-5.328581854701042175e-02,
-6.081104278564453125e-03,
3.376143425703048706e-02,
-1.273654699325561523e-01,
-1.125349551439285278e-01,
2.525476552546024323e-02,
-8.845373243093490601e-02,
-7.324270904064178467e-02,
1.058373302221298218e-01,
-7.130577694624662399e-03,
-1.693922728300094604e-01,
-1.937997788190841675e-01,
5.075373873114585876e-02,
2.175422944128513336e-02,
-1.098687946796417236e-01,
-7.079327106475830078e-02,
-7.053498178720474243e-02,
1.499373316764831543e-01,
1.319212019443511963e-01,
1.036762446165084839e-01,
1.148389056324958801e-01,
1.103732585906982422e-01,
-7.729237526655197144e-02,
6.130834296345710754e-02,
-1.433605700731277466e-02,
-7.723341137170791626e-02,
-8.910158276557922363e-02,
-1.266924887895584106e-01,
1.489866971969604492e-01,
-7.027650624513626099e-02,
-4.947642236948013306e-02,
1.249586939811706543e-01,
1.612422429025173187e-02,
-9.528806805610656738e-02,
-3.214824013411998749e-03,
1.268973052501678467e-01,
-1.414929628372192383e-01,
-5.279964953660964966e-02,
9.744275361299514771e-02,
8.831106871366500854e-02,
4.378936812281608582e-02,
-6.883975863456726074e-02,
6.157518550753593445e-02,
1.137312501668930054e-01,
-6.912977248430252075e-02,
-1.064480543136596680e-01,
-3.350071981549263000e-02,
1.302225589752197266e-01,
-5.462307482957839966e-02,
-1.670451462268829346e-01,
-1.397646367549896240e-01,
2.185360938310623169e-01,
-5.696315784007310867e-03,
1.752613186836242676e-01,
-6.843110173940658569e-02,
-1.050105690956115723e-01,
1.342458873987197876e-01,
-1.772265881299972534e-02,
2.326041460037231445e-02,
-6.894313544034957886e-02,
1.150906085968017578e-01,
-1.001776084303855896e-01,
-2.524462155997753143e-02,
-7.485901005566120148e-03,
1.387709677219390869e-01,
-1.789497882127761841e-01,
-1.871722787618637085e-01,
5.786905810236930847e-02,
6.492424756288528442e-02,
-4.728508368134498596e-02,
3.221296891570091248e-02,
1.269510686397552490e-01,
1.420715004205703735e-01,
-4.514062404632568359e-02,
1.360305547714233398e-01,
-1.373375765979290009e-02,
-1.181589886546134949e-01,
-7.878742367029190063e-02,
-1.470524668693542480e-01,
-1.788073778152465820e-01,
-1.091901585459709167e-01,
1.586188226938247681e-01,
-4.213719628751277924e-03,
-2.357543446123600006e-02,
-6.515033543109893799e-02,
-2.899667620658874512e-02,
-2.901987172663211823e-03,
-1.872797869145870209e-02,
1.791777610778808594e-01,
9.998661279678344727e-02,
-1.508133858442306519e-01,
-1.181994378566741943e-01,
-1.864808797836303711e-02,
-1.087152734398841858e-01,
-2.761445567011833191e-02,
-7.343745976686477661e-02,
1.478461176156997681e-01,
-1.547743827104568481e-01,
-1.427247375249862671e-01,
-2.056099288165569305e-02,
-8.972156792879104614e-02,
1.199690699577331543e-01,
8.672185242176055908e-02,
-1.654376536607742310e-01,
-1.131469234824180603e-01,
-4.277833923697471619e-02,
3.745400160551071167e-02,
-1.900761276483535767e-01,
-3.094503190368413925e-03,
9.378903359174728394e-02,
-8.526855707168579102e-02,
-2.165472600609064102e-03,
-1.133415848016738892e-01,
-4.362101480364799500e-02,
-3.457403555512428284e-02,
9.584321081638336182e-02,
1.604746580123901367e-01,
6.657125055789947510e-02,
-3.585897013545036316e-02,
-3.038912639021873474e-02,
-1.622962355613708496e-01,
6.188204884529113770e-02,
-3.902276232838630676e-02,
7.172272354364395142e-02,
-1.566690206527709961e-01,
1.238150000572204590e-01,
-5.929687246680259705e-02,
-8.027419447898864746e-02,
-9.846886247396469116e-02,
-5.862218886613845825e-02,
-3.731749206781387329e-02,
-1.695279479026794434e-01,
1.318564563989639282e-01,
1.740214973688125610e-01,
2.799189463257789612e-02,
-3.469722345471382141e-02,
-4.822447150945663452e-02,
-1.347444858402013779e-02,
6.973027437925338745e-02,
-6.894264370203018188e-02,
2.200484834611415863e-02,
9.430122375488281250e-02,
-1.451510339975357056e-01,
-1.033539697527885437e-01,
-2.922802232205867767e-02,
1.164675131440162659e-01,
6.554387509822845459e-02,
9.706891328096389771e-02,
2.144187688827514648e-02,
9.116306155920028687e-02,
6.489373743534088135e-02,
-1.042078137397766113e-01,
-1.948243826627731323e-01,
-7.150819152593612671e-02,
-1.018990948796272278e-01,
6.260368041694164276e-03,
8.721849322319030762e-02,
-1.785718277096748352e-02,
-9.293287992477416992e-02,
1.896848529577255249e-01,
1.009573414921760559e-01,
1.505326777696609497e-01,
-6.514595448970794678e-02,
1.961080133914947510e-01,
-3.019399009644985199e-02,
-1.612790226936340332e-01,
8.878681808710098267e-02,
-2.864118479192256927e-02,
8.102609962224960327e-02,
-1.375740170478820801e-01,
1.326097100973129272e-01,
3.818053752183914185e-02,
1.150019690394401550e-01,
9.698350727558135986e-02,
1.191721111536026001e-01,
2.102079056203365326e-02,
1.980598270893096924e-01,
7.531523704528808594e-02,
7.905521430075168610e-03,
1.386585235595703125e-01,
-2.399647375568747520e-03,
-8.615186065435409546e-02,
-8.225931227207183838e-02,
-1.367511749267578125e-01,
8.605520427227020264e-02,
-4.419314861297607422e-02,
1.004530265927314758e-01,
2.133410274982452393e-01,
-1.689305305480957031e-01,
-1.413832157850265503e-01,
1.800723224878311157e-01,
-8.811891078948974609e-02,
7.775309495627880096e-03,
1.021558791399002075e-01,
1.259987354278564453e-01,
-6.750328838825225830e-02,
-1.141204833984375000e-01,
-7.518513500690460205e-02,
-1.887976229190826416e-01,
-2.053123153746128082e-02,
1.142634898424148560e-01,
-2.604811638593673706e-02,
-1.682098954916000366e-01,
1.387475579977035522e-01,
1.502231508493423462e-01,
-1.470193862915039062e-01,
7.848045229911804199e-02,
-5.932767689228057861e-02,
-7.637316733598709106e-02,
-2.818124741315841675e-02,
-6.771033257246017456e-02,
1.866598241031169891e-02,
-6.404666602611541748e-02,
-1.528410315513610840e-01,
-5.477830022573471069e-02,
1.389357298612594604e-01,
7.194244116544723511e-02,
-1.578266620635986328e-01,
7.937575690448284149e-03,
-1.899489313364028931e-01,
1.757825016975402832e-01,
-1.488570868968963623e-01,
8.673284202814102173e-02,
6.268614530563354492e-02,
2.931501716375350952e-02,
1.197970751672983170e-02,
4.085770249366760254e-02,
-1.182858943939208984e-01,
-1.556252837181091309e-01,
-1.523209065198898315e-01,
8.152254670858383179e-02,
3.262447891756892204e-03,
2.705735713243484497e-02,
-1.171646639704704285e-01,
1.113960742950439453e-01,
2.245808579027652740e-02,
2.046644873917102814e-02,
-1.004929840564727783e-01,
-1.750705093145370483e-01,
1.242123916745185852e-01,
-1.323317736387252808e-01,
1.651231646537780762e-01,
-7.862197235226631165e-03,
1.227851584553718567e-01,
-9.413293004035949707e-02,
-9.595181047916412354e-02,
-4.910740628838539124e-02,
-1.663626134395599365e-01,
1.942928284406661987e-01,
6.413882970809936523e-02,
-1.031867787241935730e-01,
1.165621951222419739e-01,
-1.027686595916748047e-01,
-1.204797625541687012e-01,
5.367886740714311600e-03,
-3.632210940122604370e-02,
6.478069699369370937e-04,
5.916730314493179321e-02,
-1.175618320703506470e-01,
-1.531956437975168228e-02,
1.007970944046974182e-01,
1.699774414300918579e-01,
1.812694221735000610e-01,
1.506905257701873779e-01,
1.441958099603652954e-01,
3.525405889376997948e-03,
-1.388325840234756470e-01,
-1.395346224308013916e-02,
7.152167707681655884e-02,
1.389639228582382202e-01,
-1.782495230436325073e-01,
1.476816982030868530e-01,
3.957412019371986389e-02,
-1.220259219408035278e-01,
2.028684467077255249e-01,
-5.994879826903343201e-02,
8.325827121734619141e-02,
-1.521015018224716187e-01,
-1.983899176120758057e-01,
1.750012040138244629e-01,
-7.498751580715179443e-02,
-1.243978813290596008e-01,
-1.808518767356872559e-01,
-1.428678259253501892e-02,
4.638902470469474792e-02,
-8.851374685764312744e-02,
-2.196502126753330231e-02,
1.129550784826278687e-01,
4.766307771205902100e-02,
1.509063988924026489e-01,
4.254203289747238159e-02,
9.597316384315490723e-02,
4.111046344041824341e-02,
1.795157194137573242e-01,
-1.752902865409851074e-01,
-9.955971688032150269e-02,
1.230399087071418762e-01,
-7.976101338863372803e-02,
5.108982324600219727e-02,
1.304095685482025146e-01,
3.348459955304861069e-03,
1.557367015630006790e-02,
4.617838189005851746e-02,
-1.139952149242162704e-02,
6.463059689849615097e-03,
2.871033363044261932e-02,
7.874469459056854248e-02,
-1.784292608499526978e-02,
1.635991781949996948e-01,
2.562186913564801216e-03,
1.346979290246963501e-01,
5.310051888227462769e-02,
-3.480024635791778564e-02,
-1.256609857082366943e-01,
-9.385611861944198608e-02,
1.774995177984237671e-01,
-4.529006034135818481e-02,
-1.626155376434326172e-01,
1.332618892192840576e-01,
-1.121065691113471985e-01,
5.248120054602622986e-02,
1.620269268751144409e-01,
-2.725304849445819855e-02,
1.479401905089616776e-02,
1.382716745138168335e-01,
-1.050260141491889954e-01,
9.101920574903488159e-02,
4.198418464511632919e-03,
1.124972924590110779e-01,
5.888686329126358032e-02,
-1.908019185066223145e-01,
7.185648381710052490e-02,
1.714612841606140137e-01,
-6.077468395233154297e-02,
1.066684126853942871e-01,
1.017395630478858948e-01,
1.692870557308197021e-01,
7.439169567078351974e-03,
-1.415440589189529419e-01,
-1.379389762878417969e-01,
3.782190009951591492e-02,
-7.280819118022918701e-02,
1.266871392726898193e-01,
1.205680519342422485e-01,
2.988094056490808725e-04,
7.022707164287567139e-02,
-9.349148720502853394e-02,
1.204473432153463364e-02,
6.365729868412017822e-02,
1.674674004316329956e-01,
-5.039076879620552063e-02,
1.905635595321655273e-01,
1.251232028007507324e-01,
1.699086427688598633e-01,
-1.768924742937088013e-01,
-1.804270893335342407e-01,
1.426137536764144897e-01,
-1.074263602495193481e-01,
-1.445283591747283936e-01,
-6.146604940295219421e-02,
-7.026065886020660400e-02,
-5.980793386697769165e-02,
4.309197887778282166e-02,
1.363213956356048584e-01,
7.029275409877300262e-03,
1.637245714664459229e-01,
3.108215169049799442e-04,
1.888874731957912445e-02,
1.634342819452285767e-01,
1.553470045328140259e-01,
-4.033154621720314026e-02,
7.491144817322492599e-03,
-3.547299653291702271e-02,
-1.124651432037353516e-01,
-1.221168413758277893e-01,
9.433300793170928955e-02,
8.815141767263412476e-02,
2.031738124787807465e-02,
-1.788343340158462524e-01,
-6.005246564745903015e-02,
-1.449462622404098511e-01,
1.410027742385864258e-01,
-6.543004512786865234e-02,
-3.543150797486305237e-02,
1.462249159812927246e-01,
1.126438528299331665e-01,
-1.026013940572738647e-01,
-2.077098563313484192e-02,
1.375807821750640869e-01,
-6.135711073875427246e-02,
1.228139400482177734e-01,
1.450020354241132736e-02,
1.182105508632957935e-03,
-8.030871301889419556e-02,
-1.006365865468978882e-01,
-9.324522316455841064e-02,
1.306489855051040649e-01,
-3.419497609138488770e-02,
8.076235651969909668e-02,
1.403335779905319214e-01,
-1.558136790990829468e-01,
3.323882818222045898e-02,
1.325750648975372314e-01,
-1.472198814153671265e-01,
-4.472125694155693054e-02,
4.425577074289321899e-02,
-1.094790920615196228e-01,
1.738136410713195801e-01,
-1.904230564832687378e-01,
-2.997608482837677002e-02,
-1.732620447874069214e-01,
9.699918329715728760e-02,
1.934349536895751953e-01,
-1.189216747879981995e-01,
-5.214884132146835327e-02,
1.016344875097274780e-02,
-7.455208897590637207e-02,
6.194175034761428833e-02,
-4.520327225327491760e-02,
-1.192083060741424561e-01,
8.995559811592102051e-02,
-2.132714390754699707e-01,
1.187859624624252319e-01,
-1.525434255599975586e-01,
-1.795339882373809814e-01,
1.710996590554714203e-02,
8.635090291500091553e-02,
-5.010932311415672302e-02,
5.983425304293632507e-02,
9.983400255441665649e-02,
-2.050216197967529297e-01,
1.807280466891825199e-03,
-1.766297034919261932e-02,
-6.898829340934753418e-02,
-1.178951933979988098e-01,
-1.026621535420417786e-01,
-3.552645444869995117e-02,
-1.119517683982849121e-01,
7.039616256952285767e-02,
-1.255320161581039429e-01,
4.396941885352134705e-02,
-5.229349806904792786e-02,
-1.340663731098175049e-01,
-8.231262117624282837e-02,
1.736926436424255371e-01,
-8.034615963697433472e-02,
-8.670988678932189941e-02,
1.214999929070472717e-01,
-4.527940601110458374e-02,
-9.437499940395355225e-02,
-8.460372686386108398e-02,
-2.057045884430408478e-02,
-1.021209433674812317e-01,
1.952625662088394165e-01,
-1.723491996526718140e-01,
-5.427502840757369995e-02,
5.135292187333106995e-02,
-8.085860311985015869e-02,
1.700703948736190796e-01,
-1.775629520416259766e-01,
-3.778277710080146790e-02,
1.464718580245971680e-01,
1.505215764045715332e-01,
-8.139349520206451416e-02,
-1.516793817281723022e-01,
4.952290654182434082e-02,
2.273598313331604004e-02,
1.377454698085784912e-01,
7.086133956909179688e-02,
-6.930560618638992310e-02,
1.536065042018890381e-01,
-5.417925119400024414e-02,
-2.031297981739044189e-02,
-7.010012865066528320e-03,
1.229441761970520020e-01,
8.238879963755607605e-03,
-1.795693635940551758e-01,
-6.427337974309921265e-02,
1.841576397418975830e-02,
7.407119870185852051e-02,
-1.476992517709732056e-01,
-1.549764424562454224e-01,
9.919857978820800781e-02,
3.545169532299041748e-02,
8.001163601875305176e-02,
-1.787987351417541504e-02,
6.917119026184082031e-02,
1.042390763759613037e-01,
1.787688136100769043e-01,
-6.115006748586893082e-03,
1.428951323032379150e-01,
5.953069031238555908e-02,
1.347505152225494385e-01,
1.154916957020759583e-01,
-1.403160989284515381e-01,
1.516350507736206055e-01,
4.864949733018875122e-03,
6.339386850595474243e-02,
-6.056309863924980164e-02,
-1.780525296926498413e-01,
-6.892517954111099243e-02,
-5.920378863811492920e-02,
1.412353664636611938e-01,
-1.319244503974914551e-01,
-3.177072107791900635e-02,
2.421632781624794006e-02,
-1.494521498680114746e-01,
-1.932594627141952515e-01,
-5.858137272298336029e-03,
1.823512911796569824e-01,
1.442104578018188477e-01,
-7.484131306409835815e-02,
-1.165694892406463623e-01,
-1.467326134443283081e-01,
-2.496607601642608643e-02,
9.794501960277557373e-02,
-3.933628648519515991e-02,
1.116178110241889954e-01,
-1.354608833789825439e-01,
8.511326462030410767e-02,
1.029402986168861389e-01,
-4.829616472125053406e-02,
-1.622413694858551025e-01,
1.958612911403179169e-02,
8.531215041875839233e-02,
-1.168636754155158997e-01,
-1.221302598714828491e-01,
-1.275291293859481812e-02,
-7.378508150577545166e-02,
6.396337598562240601e-02,
-6.899836659431457520e-02,
-4.972708597779273987e-02,
5.174108594655990601e-02,
6.870647892355918884e-03,
1.501295715570449829e-01,
1.872488856315612793e-01,
-1.389185637235641479e-01,
2.385374158620834351e-02,
-3.841613978147506714e-02,
-1.470954567193984985e-01,
-1.745637506246566772e-01,
1.292942208237946033e-03,
-5.670328810811042786e-02,
1.222271397709846497e-01,
-5.693062767386436462e-02,
1.166940629482269287e-01,
3.142525628209114075e-02,
-1.330767273902893066e-01,
-5.079251527786254883e-02,
-4.986298270523548126e-03,
1.173685044050216675e-01,
-1.046575829386711121e-01,
1.301062256097793579e-01,
-2.668814547359943390e-02,
1.466245651245117188e-01,
6.716082245111465454e-02,
1.729933768510818481e-01,
4.159926995635032654e-02,
-4.781551286578178406e-02,
-6.213202700018882751e-02,
1.414884179830551147e-01,
1.197716668248176575e-01,
-1.356864124536514282e-01,
1.744958609342575073e-01,
3.481504321098327637e-02,
8.260641247034072876e-02,
8.913689851760864258e-02,
7.892225868999958038e-03,
3.869851678609848022e-02,
-4.200831521302461624e-03,
-4.524488747119903564e-02,
1.524042487144470215e-01,
3.127314895391464233e-02,
-4.106045514345169067e-02,
-2.195690060034394264e-03,
-1.274649947881698608e-01,
4.168873652815818787e-02,
1.141616702079772949e-01,
-3.641351126134395599e-03,
-1.909621059894561768e-01,
1.028931364417076111e-01,
-1.184673886746168137e-02,
6.954133510589599609e-02,
4.484319686889648438e-02,
-7.806013524532318115e-02,
1.479992717504501343e-01,
1.340416818857192993e-01,
-5.491587333381175995e-03,
-1.177762672305107117e-01,
1.276027858257293701e-01,
2.121762139722704887e-03,
8.736979961395263672e-02,
1.201499402523040771e-01,
-1.489541232585906982e-01,
-3.799330815672874451e-02,
5.535277351737022400e-02,
2.642185799777507782e-02,
-4.054285213351249695e-02,
-1.407429575920104980e-01,
2.747163921594619751e-02,
2.129176445305347443e-02,
-8.282290399074554443e-02,
1.596440970897674561e-01,
1.515744030475616455e-01,
-1.205449551343917847e-01,
-5.313673987984657288e-02,
-1.252337079495191574e-02,
5.661845579743385315e-02,
1.024134736508131027e-02,
-1.281966269016265869e-02,
-1.522728800773620605e-01,
-1.618580371141433716e-01,
-1.168922055512666702e-02,
-4.200214520096778870e-03,
-9.298966079950332642e-02,
-1.878892928361892700e-01,
-1.284846365451812744e-01,
-6.671708822250366211e-02,
-7.859328761696815491e-03,
-4.532107710838317871e-02,
-1.536545753479003906e-01,
-6.895826011896133423e-02,
-7.148648146539926529e-03,
-1.239951848983764648e-01,
5.156391859054565430e-02,
4.073373973369598389e-02,
8.332554996013641357e-02,
-1.190631613135337830e-01,
1.164957359433174133e-01,
7.833772338926792145e-03,
-1.281047612428665161e-01,
-1.101857721805572510e-01,
-7.438587956130504608e-03,
-1.886714696884155273e-01,
1.038969680666923523e-01,
-1.598527282476425171e-01,
1.806783676147460938e-01,
6.034200079739093781e-03,
-5.942756775766611099e-03,
8.623550832271575928e-02,
-1.089022159576416016e-01,
8.610755950212478638e-02,
-1.441225260496139526e-01,
6.627447158098220825e-02,
9.083785861730575562e-02,
1.535497307777404785e-01,
1.809427738189697266e-01,
-9.233466535806655884e-02,
-1.962236501276493073e-02,
-1.270110756158828735e-01,
1.748499870300292969e-01,
1.809947006404399872e-02,
2.731078770011663437e-03,
-2.844204194843769073e-02,
1.591241657733917236e-01,
-1.100132614374160767e-01,
-1.732912063598632812e-01,
-1.874275505542755127e-02,
-1.874662935733795166e-02,
1.367247402667999268e-01,
1.411176919937133789e-01,
-1.791958510875701904e-01,
-1.060120835900306702e-01,
1.045117303729057312e-01,
1.290434319525957108e-02,
-6.257332861423492432e-02,
-1.115777269005775452e-01,
-9.979691356420516968e-03,
9.276323020458221436e-02,
-3.952284902334213257e-02,
1.604134589433670044e-01,
-1.571308225393295288e-01,
-1.607777327299118042e-01,
-1.784207671880722046e-01,
8.143178373575210571e-02,
-6.266012787818908691e-02,
2.180802635848522186e-02,
1.233515217900276184e-01,
3.488388285040855408e-02,
1.488978266716003418e-01,
1.087717264890670776e-01,
4.036605730652809143e-02,
2.391405254602432251e-01,
2.412709221243858337e-02,
-6.746571511030197144e-02,
9.597521275281906128e-02,
1.199415400624275208e-01,
1.447205692529678345e-01,
-8.535137027502059937e-02,
-5.364330112934112549e-02,
-1.449610888957977295e-01,
-2.161554433405399323e-02,
-1.716691553592681885e-01,
5.198209732770919800e-02,
1.208508536219596863e-01,
1.611546128988265991e-01,
1.035020500421524048e-01,
1.753155328333377838e-02,
-1.115186363458633423e-01,
2.095578238368034363e-02,
-1.603739410638809204e-01,
1.825497597455978394e-01,
2.100313603878021240e-01,
1.570224463939666748e-01,
-1.192711591720581055e-01,
-1.313440501689910889e-01,
-8.817165344953536987e-02,
5.987556278705596924e-02,
-1.448886245489120483e-01,
-1.379010230302810669e-01,
-1.282038539648056030e-02,
5.758605524897575378e-02,
-1.079658269882202148e-01,
-4.372967407107353210e-02,
1.006763949990272522e-01,
-5.875781551003456116e-02,
-1.301317010074853897e-02,
-7.389644533395767212e-02,
7.660458981990814209e-02,
6.707247346639633179e-02,
-6.033952906727790833e-02,
1.341830939054489136e-01,
-1.508469581604003906e-01,
-6.560976058244705200e-02,
-7.287024706602096558e-02,
-1.573355942964553833e-01,
1.352533325552940369e-02,
2.305038273334503174e-02,
-3.205767646431922913e-02,
1.690337210893630981e-01,
1.046314984560012817e-01,
-1.533492375165224075e-02,
8.278927206993103027e-02,
1.025027930736541748e-01,
5.220348015427589417e-02,
9.656813740730285645e-02,
-4.150365665555000305e-02,
1.681776046752929688e-01,
-6.358420848846435547e-02,
-1.424466669559478760e-01,
-1.823984831571578979e-01,
4.118950571864843369e-03,
-2.967975661158561707e-02,
2.383624948561191559e-02,
2.322736568748950958e-02,
2.030904777348041534e-02,
1.106728389859199524e-01,
-1.720220744609832764e-01,
9.168729186058044434e-02,
-1.555647403001785278e-01,
8.038610219955444336e-03,
7.589210569858551025e-02,
1.603369116783142090e-01,
1.709689646959304810e-01,
9.588316828012466431e-02,
1.583133041858673096e-01,
-1.032043918967247009e-01,
-5.202592909336090088e-02,
-5.318264942616224289e-03,
-1.393408626317977905e-01,
-1.074853464961051941e-01,
5.179925262928009033e-02,
-2.871662750840187073e-02,
1.752278953790664673e-01,
-5.833933502435684204e-02,
3.231219202280044556e-02,
1.067556366324424744e-01,
1.675520837306976318e-01,
1.744585037231445312e-01,
-6.029086187481880188e-02,
-1.766280084848403931e-01,
1.349548548460006714e-01,
1.357055362313985825e-02,
-1.429738104343414307e-01,
2.519195526838302612e-02,
-1.876425296068191528e-01,
1.550655066967010498e-01,
-1.372151672840118408e-01,
-3.549437969923019409e-02,
1.668730676174163818e-01,
1.096445024013519287e-01,
3.191694617271423340e-02,
-1.052658632397651672e-01,
2.006338909268379211e-03,
-1.524223685264587402e-01,
4.810845479369163513e-02,
-1.441935002803802490e-01,
-1.959178745746612549e-01,
6.683465838432312012e-02,
-6.684041768312454224e-02,
1.630417406558990479e-01,
-3.866279125213623047e-02,
-6.417891383171081543e-02,
1.593859195709228516e-01,
-1.572600752115249634e-01,
4.981900751590728760e-02,
1.922382600605487823e-02,
5.114050954580307007e-02,
6.719864159822463989e-02,
-1.300861090421676636e-01,
1.402918398380279541e-01,
6.560131907463073730e-02,
1.651833951473236084e-01,
9.863553941249847412e-02,
1.441998779773712158e-01,
9.238458424806594849e-02,
-1.033639833331108093e-01,
1.539331823587417603e-01,
-1.291686594486236572e-01,
-3.132975473999977112e-02,
-1.649034768342971802e-01,
-3.780813142657279968e-02,
-4.552743863314390182e-03,
-1.652911603450775146e-01,
1.368272304534912109e-01,
-9.300899505615234375e-02,
-1.387977749109268188e-01,
8.659315854310989380e-02,
-6.572911143302917480e-02,
9.523924440145492554e-03,
-1.384594589471817017e-01,
7.886075973510742188e-02,
1.264726221561431885e-01,
-1.261601448059082031e-01,
4.808595776557922363e-02,
2.470217831432819366e-02,
6.117870286107063293e-02,
1.120232231914997101e-02,
7.911194115877151489e-02,
4.498617351055145264e-02,
-1.799102425575256348e-01,
1.614226847887039185e-01,
2.370884642004966736e-02,
-1.793528348207473755e-01,
4.589767195284366608e-03,
1.810341328382492065e-01,
4.630995541810989380e-02,
-1.646821945905685425e-01,
1.625687256455421448e-02,
-1.155515853315591812e-02,
5.589018389582633972e-02,
1.884782919660210609e-03,
1.249655261635780334e-01,
5.960910394787788391e-02,
1.171512678265571594e-01,
-1.168577894568443298e-01,
1.687636673450469971e-01,
9.390262886881828308e-03,
-8.282231539487838745e-02,
6.601390242576599121e-02,
-1.232614815235137939e-01,
1.016939505934715271e-01,
1.868332028388977051e-01,
1.414649002254009247e-02,
5.010627955198287964e-02,
6.844685971736907959e-02,
9.041514992713928223e-02,
9.956223517656326294e-02,
-2.827472984790802002e-02,
2.934551984071731567e-02,
1.187594458460807800e-01,
-2.717252634465694427e-02,
1.620108634233474731e-01,
4.491289291763678193e-05,
-1.941545680165290833e-02,
-8.497939258813858032e-02,
6.376867741346359253e-02,
-1.979602426290512085e-01,
2.033784240484237671e-02,
-1.801088452339172363e-01,
-1.598032563924789429e-01,
8.827015012502670288e-02,
1.873909384012222290e-01,
-1.016223132610321045e-01,
7.828513532876968384e-02,
4.178401082754135132e-02,
1.302203070372343063e-02,
3.978348150849342346e-02,
-1.108619477599859238e-02,
1.993938982486724854e-01,
-2.045435644686222076e-02,
1.733997166156768799e-01,
7.989045232534408569e-02,
4.926491901278495789e-02,
6.710410118103027344e-02,
-1.563863903284072876e-01,
1.761365309357643127e-02,
-6.346011906862258911e-02,
1.566511988639831543e-01,
-1.063113436102867126e-01,
1.899235993623733521e-01,
6.253079045563936234e-03,
7.158852368593215942e-02,
1.324494183063507080e-01,
1.429084241390228271e-01,
6.769655644893646240e-02,
-4.297910630702972412e-02,
-2.891122736036777496e-02,
1.880683377385139465e-02,
-2.519862912595272064e-02,
-1.203586906194686890e-02,
-1.384836733341217041e-01,
1.441886872053146362e-01,
-7.548161596059799194e-02,
-3.250976279377937317e-02,
-3.361079143360257149e-04,
2.189220301806926727e-02,
3.072746912948787212e-04,
-1.292795687913894653e-01,
1.203658059239387512e-01,
5.974900722503662109e-02,
4.738797992467880249e-02,
-7.088149338960647583e-02,
8.227955549955368042e-02,
3.485133498907089233e-02,
-2.839690446853637695e-02,
1.791989356279373169e-01,
2.471056953072547913e-02,
7.132646441459655762e-02,
2.465595863759517670e-02,
1.441143751144409180e-01,
-3.494065254926681519e-02,
6.169384717941284180e-02,
-2.910946868360042572e-02,
1.643907651305198669e-02,
-2.825682749971747398e-03,
-6.162427365779876709e-02,
-8.454012125730514526e-02,
8.106448501348495483e-02,
8.845966309309005737e-02,
1.344156544655561447e-02,
-1.613319851458072662e-02,
-1.707726903259754181e-02,
-1.805011332035064697e-01,
-1.551874876022338867e-01,
1.385045424103736877e-02,
-5.738481879234313965e-02,
-1.198140159249305725e-01,
1.429297924041748047e-01,
1.438299119472503662e-01,
3.466474264860153198e-02,
1.350646913051605225e-01,
-6.634360551834106445e-02,
1.169281527400016785e-01,
1.482621133327484131e-01,
1.395149827003479004e-01,
1.189125515520572662e-02,
-1.620373278856277466e-01,
-1.280744820833206177e-01,
7.016574591398239136e-02,
1.768403053283691406e-01,
1.181869879364967346e-01,
1.490817368030548096e-01,
9.131628274917602539e-02,
1.272554993629455566e-01,
-1.447540223598480225e-01,
-1.734492927789688110e-01,
-5.349081009626388550e-02,
1.192776765674352646e-02,
-1.518363207578659058e-01,
-2.083074748516082764e-01,
-1.824770867824554443e-01,
-8.820319175720214844e-02,
-2.413079142570495605e-02,
1.643216162919998169e-01,
-8.624836057424545288e-02,
1.117391288280487061e-01,
-9.977505542337894440e-04,
-8.797492086887359619e-02,
6.919360905885696411e-02,
-1.921587586402893066e-01,
1.204864084720611572e-01,
-7.600851356983184814e-02,
1.577325761318206787e-01,
-1.821142435073852539e-01,
8.635745197534561157e-02,
-1.859652698040008545e-01,
3.189237089827656746e-03,
1.721737682819366455e-01,
-1.350118815898895264e-01,
-1.634068042039871216e-01,
-1.722958832979202271e-01,
-8.798743784427642822e-02,
1.280186027288436890e-01,
3.170198947191238403e-02,
-1.080037802457809448e-01,
-1.459570080041885376e-01,
7.511629909276962280e-02,
1.603433191776275635e-01,
-1.520145833492279053e-01,
-2.914464101195335388e-02,
1.392062902450561523e-01,
-5.151974782347679138e-02,
9.649326652288436890e-02,
9.925292432308197021e-02,
-1.951382495462894440e-02,
-6.519817560911178589e-02,
-1.466210186481475830e-01,
5.010534822940826416e-02,
-1.008451282978057861e-01,
6.212242413312196732e-03,
-2.755022421479225159e-02,
-1.007792502641677856e-01,
1.149573028087615967e-01,
8.731850981712341309e-02,
3.265987336635589600e-02,
-6.599282473325729370e-02,
-1.481362879276275635e-01,
1.032545864582061768e-01,
-6.202048808336257935e-02,
-5.367539823055267334e-02,
-2.651616930961608887e-03,
-1.727871894836425781e-01,
1.171273887157440186e-01,
1.389646530151367188e-01,
1.390737891197204590e-01,
-3.177009522914886475e-02,
1.450532078742980957e-01,
1.887163519859313965e-02,
9.679913520812988281e-02,
-1.043374985456466675e-01,
1.457583010196685791e-01,
3.351721167564392090e-02,
6.110776960849761963e-02,
5.531248450279235840e-02,
1.542506515979766846e-01,
5.897049605846405029e-02,
1.944966614246368408e-02,
1.003149151802062988e-02,
-1.187363862991333008e-01,
1.527173072099685669e-01,
1.256167441606521606e-01,
-8.344625681638717651e-02,
-3.169376775622367859e-02,
1.767874062061309814e-01,
-5.417834967374801636e-02,
1.347331702709197998e-01,
-1.741824001073837280e-01,
3.063676692545413971e-02,
1.197811365127563477e-01,
9.320311248302459717e-02,
1.646046638488769531e-01,
2.295982092618942261e-02,
1.324866116046905518e-01,
-1.090756356716156006e-01,
1.327507048845291138e-01,
-8.942246437072753906e-02,
-1.753765493631362915e-01,
3.496105596423149109e-02,
-1.294841021299362183e-01,
5.279814451932907104e-02,
1.413641422986984253e-01,
-1.045907884836196899e-01,
-4.446208849549293518e-02,
1.276908069849014282e-01,
4.411674663424491882e-02,
1.436799466609954834e-01,
-9.096925705671310425e-02,
-5.149640887975692749e-02,
-4.622918367385864258e-02,
1.444558054208755493e-01,
-1.395835541188716888e-02,
1.255263686180114746e-01,
-1.097638159990310669e-01,
1.052445247769355774e-01,
8.731377124786376953e-02,
-3.141494467854499817e-02,
1.136426553130149841e-01,
-1.719870716333389282e-01,
-4.884197376668453217e-03,
-9.976537525653839111e-02,
8.367745578289031982e-02,
-8.700644224882125854e-02,
-1.126736924052238464e-01,
-1.289595961570739746e-01,
1.393118798732757568e-01,
-6.662748754024505615e-02,
-6.258153170347213745e-02,
-1.639428883790969849e-01,
-1.779492944478988647e-01,
-9.114323556423187256e-02,
-5.603123456239700317e-02,
8.254550397396087646e-02,
1.296226680278778076e-01,
1.121157035231590271e-01,
6.015161983668804169e-03,
-9.870086610317230225e-02,
-1.557331234216690063e-01,
-1.088664904236793518e-01,
5.105482414364814758e-02,
1.542338430881500244e-01,
4.662442952394485474e-02,
7.556916028261184692e-02,
1.109984144568443298e-01,
-1.196988448500633240e-01,
1.421949118375778198e-01,
9.654029458761215210e-02,
7.986064068973064423e-03,
1.693617179989814758e-02,
1.447249948978424072e-01,
-5.437272787094116211e-02,
-1.586018800735473633e-01,
-1.291249692440032959e-01,
3.942667040973901749e-03,
-1.027617603540420532e-01,
-1.494916081428527832e-01,
5.025165155529975891e-02,
7.931768149137496948e-02,
9.916355460882186890e-02,
7.947716861963272095e-02,
1.245534941554069519e-01,
9.425515681505203247e-02,
-1.076372861862182617e-01,
6.427435204386711121e-03,
7.562122493982315063e-02,
-1.218192745000123978e-03,
1.285144239664077759e-01,
9.120341390371322632e-02,
7.835520803928375244e-02,
4.617900028824806213e-02,
-9.932770580053329468e-02,
3.900671144947409630e-03,
5.873022601008415222e-02,
9.635345637798309326e-02,
1.200892254710197449e-01,
-1.747089996933937073e-02,
1.043062284588813782e-01,
-9.399861097335815430e-02,
8.672714233398437500e-02,
2.879248186945915222e-02,
-1.161315813660621643e-01,
-1.233676001429557800e-01,
3.134959191083908081e-02,
8.243028074502944946e-02,
1.338466554880142212e-01,
-1.548925638198852539e-01,
-1.253946572542190552e-01,
-1.913269013166427612e-01,
1.434274017810821533e-01,
-7.985231280326843262e-02,
-1.364774554967880249e-01,
-1.571519374847412109e-01,
-5.013006925582885742e-02,
1.762827187776565552e-01,
6.618434935808181763e-02,
1.653836965560913086e-01,
-2.019173949956893921e-01,
7.981041073799133301e-02,
-1.240873709321022034e-01,
-1.320676803588867188e-01,
-5.061962455511093140e-02,
1.129768118262290955e-01,
-1.522090584039688110e-01,
2.619535103440284729e-02,
-1.264283210039138794e-01,
1.583606898784637451e-01,
-1.563585400581359863e-01,
1.380228996276855469e-01,
-7.152142375707626343e-02,
3.816124750301241875e-03,
-1.247699037194252014e-01,
-1.402846425771713257e-01,
-8.742301166057586670e-02,
1.664598286151885986e-01,
1.109634786844253540e-01,
9.793571382761001587e-02,
-4.998286813497543335e-02,
-1.584626138210296631e-01,
-1.644567549228668213e-01,
9.804308414459228516e-02,
-1.770690828561782837e-02,
4.544024541974067688e-02,
5.420759320259094238e-02,
-1.296006590127944946e-01,
-3.489442914724349976e-02,
-4.685529693961143494e-02,
1.522351354360580444e-01,
-3.294565528631210327e-02,
-1.533734053373336792e-01,
6.237304583191871643e-02,
-1.037563011050224304e-01,
3.152380464598536491e-03,
1.237817574292421341e-02,
1.397317647933959961e-01,
1.174501180648803711e-01,
1.467616856098175049e-01,
-4.747608304023742676e-02,
8.430870622396469116e-02,
-1.568512022495269775e-01,
4.658382758498191833e-02,
9.634146094322204590e-02,
1.158474087715148926e-01,
-1.232493594288825989e-01,
-1.757325679063796997e-01,
1.359326988458633423e-01,
-1.335941255092620850e-01,
6.771869212388992310e-02,
-4.152518138289451599e-02,
-1.652159243822097778e-01,
-3.500646352767944336e-02,
-1.421102434396743774e-01,
1.580336540937423706e-01,
1.633034497499465942e-01,
1.649777442216873169e-01,
1.637326776981353760e-01,
1.251891553401947021e-01,
-1.739301234483718872e-01,
1.653048694133758545e-01,
-8.617266267538070679e-02,
-1.590060591697692871e-01,
3.138609929010272026e-03,
4.980443790555000305e-02,
5.402873829007148743e-02,
1.700779497623443604e-01,
1.943974941968917847e-02,
-1.409394592046737671e-01,
6.457084417343139648e-02,
1.118712243624031544e-03,
-1.413973420858383179e-01,
7.826853543519973755e-02,
-1.771082282066345215e-01,
-2.126262150704860687e-02,
1.878387928009033203e-01,
5.914944410324096680e-02,
1.627290099859237671e-01,
1.351464837789535522e-01,
4.681007936596870422e-02,
-1.854439526796340942e-01,
3.156037628650665283e-02,
-2.787418104708194733e-02,
-1.278069466352462769e-01,
4.650453850626945496e-02,
-6.276252865791320801e-02,
1.325227469205856323e-01,
5.189618095755577087e-03,
-1.735291033983230591e-01,
-1.424200534820556641e-01,
2.122435159981250763e-02,
-8.584394305944442749e-02,
-1.854662746191024780e-01,
-1.654566675424575806e-01,
1.511069834232330322e-01,
-8.035110682249069214e-02,
2.452366240322589874e-02,
1.181591972708702087e-01,
-4.564428701996803284e-02,
-7.314919680356979370e-02,
9.888697415590286255e-02,
3.873355686664581299e-02,
-1.885262876749038696e-01,
-5.231248959898948669e-02,
-5.782786384224891663e-02,
-9.262052178382873535e-02,
-4.695574194192886353e-02,
1.206533685326576233e-01,
9.067060798406600952e-02,
1.406408101320266724e-01,
-7.011419534683227539e-02,
1.204171702265739441e-01,
4.232714325189590454e-02,
-9.076932817697525024e-02,
-1.195015087723731995e-01,
9.033309668302536011e-02,
-1.486894488334655762e-01,
2.591902948915958405e-02,
-1.284191757440567017e-01,
8.110310882329940796e-02,
4.900671169161796570e-02,
5.153944715857505798e-02,
-2.094845473766326904e-01,
-3.418020531535148621e-02,
-6.369180232286453247e-02,
-1.222767457365989685e-01,
8.551964908838272095e-02,
1.684976555407047272e-02,
-5.269234627485275269e-02,
1.251044273376464844e-01,
5.702088028192520142e-02,
-1.776189059019088745e-01,
1.389708071947097778e-01,
7.408907264471054077e-02,
-7.202164083719253540e-02,
-1.500892341136932373e-01,
1.846622861921787262e-02,
1.610085740685462952e-02,
-1.787913441658020020e-01,
1.168881207704544067e-01,
-3.949826955795288086e-02,
-1.129579842090606689e-01,
-3.842658549547195435e-02,
-1.519748866558074951e-01,
-1.767998933792114258e-01,
-5.454701557755470276e-02,
1.658176630735397339e-01,
1.163700371980667114e-01,
-9.363174438476562500e-02,
1.190785467624664307e-01,
-1.310273855924606323e-01,
-1.083432789891958237e-02,
9.984327107667922974e-02,
1.005374640226364136e-01,
1.749598085880279541e-01,
7.827550172805786133e-02,
1.476430445909500122e-01,
-4.666968062520027161e-02,
1.782287210226058960e-01,
1.932712197303771973e-01,
-4.142453894019126892e-02,
1.143664568662643433e-01,
5.395892262458801270e-02,
-1.165965273976325989e-01,
-1.084141135215759277e-01,
6.885367631912231445e-02,
-9.659906476736068726e-02,
7.813308387994766235e-02,
8.914113044738769531e-02,
2.014401108026504517e-01,
1.495645046234130859e-01,
1.852689236402511597e-01,
-1.374170631170272827e-01,
-1.066143885254859924e-01,
-6.147314235568046570e-02,
-4.083398263901472092e-03,
-1.926916539669036865e-01,
3.670586645603179932e-02,
-8.963838964700698853e-02,
-2.311074584722518921e-01,
1.045440956950187683e-01,
-1.649409085512161255e-01,
-3.254286944866180420e-02,
-3.972695209085941315e-03,
6.680705398321151733e-02,
-1.571139693260192871e-01,
1.463705599308013916e-01,
-9.118386358022689819e-02,
-1.582995057106018066e-01,
-5.265562981367111206e-02,
2.485647425055503845e-02,
4.959724098443984985e-02,
-3.372496366500854492e-02,
9.570142626762390137e-02,
-1.550781130790710449e-01,
-1.081884205341339111e-01,
1.028702780604362488e-02,
9.248451143503189087e-02,
1.241187155246734619e-01,
-1.236981377005577087e-01,
9.440700709819793701e-02,
1.335850805044174194e-01,
2.516362071037292480e-01,
-9.819976985454559326e-02,
1.261970996856689453e-01,
3.419473394751548767e-02,
8.547450415790081024e-03,
6.596087664365768433e-02,
-1.653222590684890747e-01,
-1.068407148122787476e-01,
-3.666453808546066284e-02,
1.892203837633132935e-01,
9.426958858966827393e-02,
-1.378747671842575073e-01,
1.365193724632263184e-01,
1.291739940643310547e-01,
-8.445907384157180786e-02,
9.844729304313659668e-02,
1.818487346172332764e-01,
-1.478203684091567993e-01,
-1.129212751984596252e-01,
-6.291142106056213379e-02,
3.398764878511428833e-02,
-1.111790984869003296e-01,
1.760090589523315430e-01,
-4.131889715790748596e-02,
7.655318826436996460e-02,
-1.727081984281539917e-01,
1.810380816459655762e-01,
-1.477753371000289917e-01,
1.584417074918746948e-01,
1.233799085021018982e-01,
2.693175151944160461e-02,
-5.120836570858955383e-02,
-7.414706796407699585e-02,
-1.351354867219924927e-01,
1.019702404737472534e-01,
8.957304060459136963e-02,
-1.332180202007293701e-01,
-1.116030104458332062e-02,
-1.742290556430816650e-01,
-7.617389410734176636e-02,
1.000502854585647583e-01,
1.375242620706558228e-01,
8.607260882854461670e-02,
-9.008990973234176636e-02,
1.681785881519317627e-01,
-1.464610546827316284e-01,
-1.137909218668937683e-01,
1.443953812122344971e-01,
1.598762869834899902e-01,
-1.537083685398101807e-01,
-6.401220709085464478e-02,
-3.704320639371871948e-03,
-1.514899581670761108e-01,
5.358786508440971375e-02,
-1.667244285345077515e-01,
6.224880740046501160e-02,
1.403250098228454590e-01,
-1.486648768186569214e-01,
2.988446876406669617e-02,
-1.025174409151077271e-01,
3.164209797978401184e-02,
-1.109440848231315613e-01,
2.986152190715074539e-03,
5.077271722257137299e-03,
-2.027747333049774170e-01,
-8.531264215707778931e-02,
1.871045976877212524e-01,
-9.734153747558593750e-02,
-8.871448785066604614e-02,
1.650724709033966064e-01,
2.607794106006622314e-02,
4.501115158200263977e-02,
-1.036162003874778748e-01,
3.510941518470644951e-03,
-1.089877709746360779e-01,
-1.820167601108551025e-01,
-9.931055456399917603e-02,
-1.704442054033279419e-01,
-2.209908328950405121e-02,
-1.056132838129997253e-01,
-2.204202115535736084e-02,
6.236999109387397766e-02,
1.153877973556518555e-01,
3.561612963676452637e-02,
-4.988186061382293701e-03,
-1.282686442136764526e-01,
1.896456927061080933e-01,
-1.163539439439773560e-01,
7.199282944202423096e-02,
1.752261519432067871e-01,
1.926725506782531738e-01,
-5.480710417032241821e-02,
-6.092485971748828888e-03,
1.600439846515655518e-01,
7.753823697566986084e-02,
-3.808316960930824280e-02,
-1.335732191801071167e-01,
1.541250497102737427e-01,
6.206300482153892517e-02,
-1.580314361490309238e-03,
-1.198529079556465149e-01,
-1.390367001295089722e-01,
1.491154283285140991e-01,
8.245673775672912598e-02,
-1.454158127307891846e-01,
-6.216535717248916626e-02,
1.741845309734344482e-01,
1.348247826099395752e-01,
1.288931369781494141e-01,
-6.375700235366821289e-03,
-5.002191662788391113e-02,
-9.214413166046142578e-02,
2.210798859596252441e-02,
-4.662942886352539062e-02,
1.306872069835662842e-01,
-4.170307517051696777e-02,
-1.543640345335006714e-01,
5.868159234523773193e-02,
-1.071810349822044373e-01,
-9.809717535972595215e-03,
-1.483429670333862305e-01,
-1.537413895130157471e-01,
-1.039256155490875244e-02,
1.172865629196166992e-01,
-1.217455193400382996e-01,
-8.310920000076293945e-02,
8.697441220283508301e-02,
-1.608123481273651123e-01,
7.482653856277465820e-02,
-2.842339873313903809e-02,
1.054313629865646362e-01,
-3.401312977075576782e-02,
-1.896890103816986084e-01,
-2.013367861509323120e-01,
7.645754516124725342e-02,
1.364780217409133911e-01,
-1.778895854949951172e-01,
-2.486886456608772278e-03,
-1.770510226488113403e-01,
1.023212000727653503e-01,
-7.789178937673568726e-02,
-1.552270054817199707e-01,
4.750955104827880859e-02,
-2.156390696763992310e-01,
-1.628607958555221558e-01,
-1.599112302064895630e-01,
-3.754320740699768066e-02,
-1.233983598649501801e-02,
-3.255793079733848572e-02,
-1.550535112619400024e-01,
1.904235333204269409e-01,
8.126257359981536865e-02,
6.070772185921669006e-02,
1.338349729776382446e-01,
1.799765378236770630e-01,
-1.937217116355895996e-01,
1.148698627948760986e-01,
-1.203440949320793152e-01,
1.075685024261474609e-01,
1.834672689437866211e-02,
-4.416286572813987732e-02,
6.306784600019454956e-02,
1.727068983018398285e-02,
-9.645348787307739258e-02,
-1.105807572603225708e-01,
1.602568663656711578e-02,
-1.396350841969251633e-02,
-4.386790841817855835e-02,
2.846032567322254181e-02,
5.784471333026885986e-02,
6.510809808969497681e-02,
-2.561002597212791443e-02,
4.546097666025161743e-02,
1.989157944917678833e-01,
1.425936818122863770e-01,
9.918208234012126923e-03,
1.101548150181770325e-01,
-2.366671152412891388e-02,
2.775860950350761414e-02,
-5.036767572164535522e-02,
-2.359183691442012787e-02,
3.043950907886028290e-02,
-1.457442045211791992e-01,
-1.501185595989227295e-01,
-8.951352536678314209e-02,
1.646124124526977539e-01,
-1.322334408760070801e-01,
4.494662955403327942e-02,
4.350033402442932129e-02,
6.659006699919700623e-03,
1.319615840911865234e-01,
-1.521180719137191772e-01,
-1.435114741325378418e-01,
1.035380959510803223e-01,
-1.951511502265930176e-01,
-6.017974019050598145e-02,
-1.265409439802169800e-01,
1.533148288726806641e-01,
-1.240659654140472412e-01,
6.992552429437637329e-02,
4.265944659709930420e-02,
-3.714539110660552979e-02,
-1.741660237312316895e-01,
7.706879079341888428e-02,
1.318494975566864014e-01,
1.618008315563201904e-02,
-7.986184209585189819e-02,
-8.489858359098434448e-02,
9.940996021032333374e-02,
-1.521610170602798462e-01,
3.160307183861732483e-02,
1.199451759457588196e-01,
1.481817215681076050e-01,
1.221286877989768982e-01,
-1.928252577781677246e-01,
-6.440118700265884399e-02,
-1.242704913020133972e-01,
1.142260134220123291e-01,
-1.429710686206817627e-01,
6.580016762018203735e-02,
-1.541649699211120605e-01,
-7.180294394493103027e-02,
-1.891192793846130371e-01,
1.466059237718582153e-01,
9.608673304319381714e-02,
-1.021802350878715515e-01,
-9.200253337621688843e-02,
1.726834625005722046e-01,
-1.352001279592514038e-01,
-1.134925335645675659e-01,
-2.137586325407028198e-01,
-1.228291094303131104e-01,
1.426633894443511963e-01,
6.696689873933792114e-02,
4.717134684324264526e-02,
5.590349808335304260e-02,
3.298341110348701477e-02,
1.793349236249923706e-01,
-2.742906101047992706e-02,
7.748576998710632324e-02,
-1.706522554159164429e-01,
-8.667480945587158203e-02,
-1.737170964479446411e-01,
-9.045150876045227051e-02,
9.298223257064819336e-02,
1.771711111068725586e-01,
1.377492696046829224e-01,
9.769997745752334595e-02,
-1.802012920379638672e-01,
-1.975482553243637085e-01,
-1.074529066681861877e-01,
-7.335402071475982666e-02,
1.307985484600067139e-01,
1.105325371026992798e-01,
1.388045400381088257e-01,
1.872325986623764038e-01,
-3.421377390623092651e-02,
-1.125513985753059387e-01,
-6.913486868143081665e-02,
-1.480867862701416016e-01,
-1.762341149151325226e-02,
-6.243567913770675659e-02,
-1.335351914167404175e-01,
5.584332346916198730e-02,
7.198610156774520874e-02,
5.141181498765945435e-02,
-1.665132939815521240e-01,
5.270005762577056885e-02,
-1.389326602220535278e-01,
-1.452830135822296143e-01,
1.469292789697647095e-01,
7.531607896089553833e-02,
9.677553921937942505e-02,
1.499309539794921875e-01,
-9.536045044660568237e-02,
1.481082886457443237e-01,
5.992249399423599243e-02,
1.388369202613830566e-01,
-1.657450050115585327e-01,
2.355715632438659668e-01,
-1.662506461143493652e-01,
-2.014926373958587646e-01,
9.614206105470657349e-02,
1.404830664396286011e-01,
-4.385770484805107117e-02,
2.421615831553936005e-02,
1.099067628383636475e-01,
-1.341115683317184448e-01,
2.408423088490962982e-02,
-1.327292155474424362e-02,
-8.822149038314819336e-02,
-5.957372114062309265e-02,
4.976911842823028564e-02,
2.233035489916801453e-02,
-1.143540740013122559e-01,
1.462097465991973877e-01,
7.836282998323440552e-02,
1.615352183580398560e-02,
1.302512139081954956e-01,
-1.258341819047927856e-01,
-9.011878818273544312e-02,
-7.979439944028854370e-02,
-1.661283373832702637e-01,
-1.054297909140586853e-01,
1.333201378583908081e-01,
-9.991559386253356934e-02,
-2.382379025220870972e-02,
6.044657900929450989e-02,
4.105816408991813660e-02,
1.887308806180953979e-02,
7.515855133533477783e-02,
-1.896166354417800903e-01,
9.007804095745086670e-02,
1.414699852466583252e-02,
1.517857015132904053e-01,
-1.367883477360010147e-02,
1.092308312654495239e-01,
1.870477050542831421e-01,
1.927834600210189819e-01,
-3.455237671732902527e-02,
-1.932575851678848267e-01,
-1.127407550811767578e-01,
-4.232909157872200012e-02,
-6.822273880243301392e-02,
-1.233567371964454651e-01,
4.304396361112594604e-02,
1.458695381879806519e-01,
1.128647178411483765e-01,
1.077326759696006775e-01,
6.960095465183258057e-02,
1.117894574999809265e-01,
3.589329496026039124e-02,
-9.106547385454177856e-02,
1.481333822011947632e-01,
-1.665749549865722656e-01,
2.680273912847042084e-02,
-1.004142612218856812e-01,
-8.894568681716918945e-02,
1.036581471562385559e-01,
-1.980241090059280396e-01,
1.499517858028411865e-01,
-1.167007070034742355e-02,
-1.725304573774337769e-01,
1.805498003959655762e-01,
4.948810860514640808e-02,
2.047547698020935059e-02,
1.391063779592514038e-01,
-1.637075841426849365e-02,
1.450623422861099243e-01,
6.606704741716384888e-02,
-1.748901903629302979e-01,
1.442399471998214722e-01,
1.256439238786697388e-01,
9.527341276407241821e-02,
-9.307432919740676880e-02,
-2.626973576843738556e-02,
-3.201797977089881897e-02,
-2.727989852428436279e-02,
-1.371930688619613647e-01,
9.420393407344818115e-02,
1.261899620294570923e-02,
6.728138774633407593e-02,
-2.322886604815721512e-03,
-8.823188394308090210e-02,
9.210970997810363770e-02,
2.104689925909042358e-02,
-6.316448748111724854e-02,
9.562500566244125366e-02,
8.106940239667892456e-02,
-7.469756901264190674e-02,
-9.136903285980224609e-02,
1.294077932834625244e-01,
1.490686237812042236e-01,
-1.339530944824218750e-01,
1.638437062501907349e-01,
-1.001352369785308838e-01,
6.292455643415451050e-02,
9.772481769323348999e-02,
-1.409392058849334717e-01,
7.410938292741775513e-02,
-6.979659944772720337e-02,
-1.701759696006774902e-01,
-1.299803406000137329e-01,
1.427364647388458252e-01,
-1.863997727632522583e-01,
-1.745819151401519775e-01,
1.606703996658325195e-01,
-1.298403292894363403e-01,
3.425382077693939209e-02,
9.941312670707702637e-02,
-4.799692032975144684e-05,
1.196008548140525818e-01,
-2.969755791127681732e-03,
-5.470811203122138977e-02,
1.344307512044906616e-01,
1.693280786275863647e-01,
1.357871145009994507e-01,
-1.592766195535659790e-01,
-4.858317598700523376e-02,
-4.681020230054855347e-02,
8.596064150333404541e-02,
2.147350274026393890e-02,
-5.953234806656837463e-02,
8.910476416349411011e-02,
4.405102878808975220e-02,
1.695013493299484253e-01,
1.790490895509719849e-01,
-1.343706101179122925e-01,
6.174712628126144409e-02,
2.164093554019927979e-01,
4.776215180754661560e-02,
1.295603066682815552e-01,
-1.662350445985794067e-01,
1.756486715748906136e-03,
1.330116689205169678e-01,
-1.809946596622467041e-01,
1.649826616048812866e-01,
1.081788241863250732e-01,
-1.347429603338241577e-01,
1.331193447113037109e-01,
-2.424597367644309998e-02,
1.310562491416931152e-01,
-3.128116205334663391e-02,
-1.310688853263854980e-01,
-1.390632092952728271e-01,
1.351637095212936401e-01,
-5.427046865224838257e-02,
1.263451129198074341e-01,
8.593233674764633179e-02,
1.374488472938537598e-01,
1.361460089683532715e-01,
5.901978164911270142e-02,
-5.567729473114013672e-02,
8.748575299978256226e-02,
-4.951203241944313049e-03,
7.140047848224639893e-03,
-3.878806531429290771e-02,
-1.407576054334640503e-01,
1.496561616659164429e-02,
7.402823120355606079e-02,
-1.156926229596138000e-01,
1.238056719303131104e-01,
-2.917079254984855652e-03,
-1.931948214769363403e-01,
-1.875539720058441162e-01,
-1.150234341621398926e-01,
-3.920655697584152222e-02,
1.422419250011444092e-01,
-8.490865584462881088e-04,
-2.188441902399063110e-02,
1.947968602180480957e-01,
2.679209411144256592e-02,
-1.590750664472579956e-01,
1.601568460464477539e-01,
1.712506264448165894e-01,
-2.982138888910412788e-03,
-6.781534850597381592e-02,
3.453309088945388794e-02,
1.190815567970275879e-01,
1.449359655380249023e-01,
3.390918299555778503e-02,
-1.025262698531150818e-01,
9.665041416883468628e-02,
-5.309831723570823669e-02,
-1.457921415567398071e-01,
-1.552595496177673340e-01,
7.767012715339660645e-02,
6.050933152437210083e-03,
1.047090813517570496e-02,
9.710253030061721802e-02,
-3.775058314204216003e-02,
-1.776222288608551025e-01,
1.097187027335166931e-01,
1.343521177768707275e-01,
1.255847513675689697e-01,
-4.264594241976737976e-02,
-6.945052742958068848e-02,
-1.797064840793609619e-01,
1.600020825862884521e-01,
-1.063071712851524353e-01,
1.429423391819000244e-01,
9.324138611555099487e-02,
5.924040451645851135e-02,
-6.916679441928863525e-02,
-1.061338186264038086e-01,
-1.867009252309799194e-01,
-1.596158929169178009e-02,
-1.177141442894935608e-01,
7.392320781946182251e-02,
-5.619258806109428406e-02,
7.483988255262374878e-02,
-9.002152085304260254e-02,
-1.757000684738159180e-01,
1.674249172210693359e-01,
5.537734925746917725e-02,
-5.119849741458892822e-02,
-1.735107749700546265e-01,
-1.081420630216598511e-01,
-1.720156222581863403e-01,
-1.044760793447494507e-01,
1.937579177320003510e-02,
7.128558307886123657e-02,
1.413401365280151367e-01,
9.491779841482639313e-03,
-1.290235966444015503e-01,
-1.636331975460052490e-01,
-1.416690051555633545e-01,
8.728239685297012329e-02,
-1.634646505117416382e-01,
1.515446901321411133e-01,
1.762442737817764282e-01,
-1.016297936439514160e-01,
-1.535032242536544800e-01,
1.185638383030891418e-01,
7.782756537199020386e-02,
-9.027965366840362549e-02,
1.168887615203857422e-01,
1.700425446033477783e-01,
-6.056860834360122681e-02,
1.250075548887252808e-01,
1.373136788606643677e-01,
1.440715044736862183e-01,
-1.862186491489410400e-01,
-2.732951194047927856e-02,
1.183749586343765259e-01,
1.609745025634765625e-01,
8.449328690767288208e-02,
-1.357142776250839233e-01,
-1.188020780682563782e-02,
-9.888982027769088745e-02,
1.845582723617553711e-01,
-2.908360585570335388e-02,
-8.260643482208251953e-02,
-1.153008416295051575e-01,
8.810232393443584442e-03,
-1.638346165418624878e-02,
-1.154576912522315979e-01,
1.705178171396255493e-01,
-4.025869816541671753e-02,
1.035230010747909546e-01,
1.808498203754425049e-01,
-1.408209204673767090e-01,
7.398723810911178589e-02,
3.133713454008102417e-02,
1.232568472623825073e-01,
-7.495667785406112671e-02,
-5.255044903606176376e-03,
1.940400921739637852e-03,
1.055791676044464111e-01,
1.667532771825790405e-01,
1.546098738908767700e-01,
-1.093187928199768066e-01,
-9.971695393323898315e-02,
9.425643831491470337e-03,
1.631179600954055786e-01,
9.923800081014633179e-02,
7.263197004795074463e-02,
1.647570915520191193e-02,
-1.437215507030487061e-01,
1.116100102663040161e-01,
-5.539987236261367798e-02,
1.051282063126564026e-01,
9.169686585664749146e-02,
-1.264639943838119507e-01,
-1.700860410928726196e-01,
-1.265863478183746338e-01,
1.130524277687072754e-01,
-1.888124085962772369e-02,
2.322599478065967560e-02,
-1.628405600786209106e-01,
-7.910939306020736694e-02,
-3.325645253062248230e-02,
1.540282666683197021e-01,
-5.288474634289741516e-02,
2.780832163989543915e-02,
1.687863655388355255e-02,
6.672820448875427246e-02,
-2.673383988440036774e-02,
1.337913721799850464e-01,
-4.825368523597717285e-02,
1.886038184165954590e-01,
9.650070965290069580e-02,
1.033433526754379272e-01,
-3.108468838036060333e-02,
1.757035851478576660e-01,
1.669583842158317566e-02,
1.730391383171081543e-01,
6.385393440723419189e-02,
3.282489255070686340e-02,
5.891186371445655823e-02,
6.545703858137130737e-02,
1.433470100164413452e-01,
-1.759782731533050537e-01,
5.177511274814605713e-02,
-1.533776372671127319e-01,
1.551673561334609985e-01,
-1.286961883306503296e-01,
1.575138270854949951e-01,
-1.200594604015350342e-01,
-7.866539061069488525e-02,
-2.111655473709106445e-02,
1.508828401565551758e-01,
8.094685524702072144e-02,
-1.775373816490173340e-01,
-1.253485828638076782e-01,
-1.003515422344207764e-01,
-6.428897846490144730e-03,
-7.443987578153610229e-02,
-1.328552663326263428e-01,
1.405536085367202759e-01,
1.474810093641281128e-01,
6.458533927798271179e-03,
-3.246848657727241516e-02,
4.770099744200706482e-02,
-4.036157205700874329e-02,
3.132075769826769829e-03,
-9.892837703227996826e-02,
1.593855582177639008e-02,
-8.656331151723861694e-02,
1.120460256934165955e-01,
-6.910902261734008789e-02,
1.379206329584121704e-01,
5.246911197900772095e-02,
-4.624707624316215515e-02,
1.074445843696594238e-01,
4.176872223615646362e-02,
-1.116057112812995911e-01,
9.219217300415039062e-02,
2.204214632511138916e-01,
2.459377050399780273e-02,
1.175997033715248108e-01,
1.775935739278793335e-01,
1.239304915070533752e-01,
4.961203411221504211e-02,
1.446528080850839615e-02,
-3.739083185791969299e-02,
1.251761168241500854e-01,
-3.103265166282653809e-02,
-1.289635598659515381e-01,
-7.218317687511444092e-02,
-1.084770411252975464e-01,
1.326168328523635864e-01,
9.659162908792495728e-02,
3.719029948115348816e-02,
-2.156131900846958160e-02,
1.488170623779296875e-01,
-5.743854120373725891e-02,
9.527944773435592651e-02,
1.294306013733148575e-02,
1.481752544641494751e-01,
6.881451606750488281e-02,
1.512837857007980347e-01,
-1.484056413173675537e-01,
1.354918479919433594e-01,
1.014194563031196594e-01,
9.598602354526519775e-02,
-1.842771321535110474e-01,
7.972781546413898468e-03,
9.872945398092269897e-02,
1.312779784202575684e-01,
-1.720397323369979858e-01,
-2.086967788636684418e-02,
8.913715928792953491e-02,
-1.558931022882461548e-01,
1.558453589677810669e-01,
-7.496004551649093628e-02,
2.616462856531143188e-02,
2.526498027145862579e-02,
-9.100066125392913818e-02,
-1.776554882526397705e-01,
8.185197412967681885e-02,
-1.541599929332733154e-01,
-1.076246723532676697e-01,
-1.397129595279693604e-01,
1.304712295532226562e-01,
-1.637378931045532227e-01,
1.485940366983413696e-01,
1.230115070939064026e-01,
1.803119108080863953e-02,
-1.574926823377609253e-01,
-1.873146295547485352e-01,
-1.386559307575225830e-01,
9.370038658380508423e-02,
1.540670245885848999e-01,
1.768149584531784058e-01,
-5.280331149697303772e-02,
6.363876909017562866e-02,
-1.846659034490585327e-01,
1.217251867055892944e-01,
1.413718461990356445e-01,
-1.808037608861923218e-01,
-1.172650679945945740e-01,
5.130888149142265320e-02,
1.349643711000680923e-02,
-1.380849778652191162e-01,
2.016701698303222656e-01,
1.271027922630310059e-01,
-5.865343660116195679e-02,
-7.092993706464767456e-02,
-1.345738917589187622e-01,
-5.812709033489227295e-02,
-1.158955320715904236e-01,
-1.442938446998596191e-01,
1.817374378442764282e-01,
-1.534593403339385986e-01,
-8.708533644676208496e-02,
-2.037197202444076538e-01,
3.401206806302070618e-02,
-1.124985739588737488e-01,
-1.218934282660484314e-01,
-1.551536917686462402e-01,
4.674298316240310669e-02,
-1.664727926254272461e-02,
9.044898301362991333e-02,
-2.036219239234924316e-01,
-7.879781536757946014e-03,
1.054377406835556030e-01,
-5.993163958191871643e-02,
1.313706208020448685e-02,
1.157290786504745483e-01,
-2.355318143963813782e-02,
-1.749247759580612183e-01,
-8.029540069401264191e-03,
1.233337745070457458e-01,
1.764475926756858826e-02,
1.178764402866363525e-01,
4.923232644796371460e-02,
-2.531391754746437073e-02,
-8.517112582921981812e-02,
5.436146166175603867e-03,
-6.994281709194183350e-02,
4.628390818834304810e-02,
1.507993638515472412e-01,
-1.155605986714363098e-01,
7.277567684650421143e-02,
1.146518066525459290e-01,
1.316461414098739624e-01,
7.991146296262741089e-02,
1.151479184627532959e-01,
-1.327030360698699951e-01,
4.957794770598411560e-02,
1.368717253208160400e-01,
3.496450185775756836e-02,
3.426762297749519348e-02,
-1.025943681597709656e-01,
4.610221087932586670e-02,
-1.727516353130340576e-01,
9.436878561973571777e-02,
-1.745551526546478271e-01,
6.452738493680953979e-02,
-8.097404986619949341e-02,
-1.015320420265197754e-01,
4.849987849593162537e-02,
1.078034657984972000e-02,
-9.181250631809234619e-02,
-6.192119792103767395e-02,
-1.104026213288307190e-01,
1.090188547968864441e-01,
-1.362896412611007690e-01,
1.266410797834396362e-01,
5.932619050145149231e-02,
3.651424497365951538e-02,
-1.916511654853820801e-01,
-1.646066606044769287e-01,
4.321681708097457886e-02,
1.734318137168884277e-01,
8.913183212280273438e-02,
-3.691020980477333069e-02,
9.620919078588485718e-02,
-1.374470889568328857e-01,
1.370024532079696655e-01,
-1.595218181610107422e-01,
1.633196622133255005e-01,
1.617076843976974487e-01,
-3.103840863332152367e-03,
-9.355758875608444214e-02,
1.762338131666183472e-01,
-7.534090429544448853e-02,
4.543269798159599304e-02,
-7.210058718919754028e-02,
1.668598502874374390e-01,
4.008262231945991516e-02,
-1.402436941862106323e-01,
-1.258369237184524536e-01,
6.783488392829895020e-02,
-8.963564783334732056e-02,
7.591219991445541382e-02,
3.852161765098571777e-02,
1.251709461212158203e-01,
7.557106763124465942e-02,
1.049232855439186096e-01,
1.349546462297439575e-01,
-4.052757844328880310e-02,
-1.456869989633560181e-01,
1.280507147312164307e-01,
-3.255884721875190735e-02,
1.505420506000518799e-01,
6.273807585239410400e-02,
-8.981084078550338745e-02,
1.397238969802856445e-01,
-4.055354744195938110e-02,
1.479828804731369019e-01,
-9.879874438047409058e-02,
1.641009300947189331e-01,
-1.604194343090057373e-01,
-1.766391843557357788e-01,
3.981899097561836243e-02,
-2.635106444358825684e-02,
4.794779419898986816e-02,
1.270514726638793945e-02,
1.050860136747360229e-01,
4.893846437335014343e-02,
-8.077625185251235962e-02,
1.462173275649547577e-02,
